{"learner":{"attributes":{"scikit_learn":"{\"_estimator_type\": \"regressor\"}"},"feature_names":["lag1","lag2","lag3","hour","dayofweek","quarter","month","year","dayofyear"],"feature_types":["float","float","float","int","int","int","int","int","int"],"gradient_booster":{"model":{"gbtree_model_param":{"num_parallel_tree":"1","num_trees":"500"},"iteration_indptr":[0,1,2,3,4,5,6,7,8,9,10,11,12,13,14,15,16,17,18,19,20,21,22,23,24,25,26,27,28,29,30,31,32,33,34,35,36,37,38,39,40,41,42,43,44,45,46,47,48,49,50,51,52,53,54,55,56,57,58,59,60,61,62,63,64,65,66,67,68,69,70,71,72,73,74,75,76,77,78,79,80,81,82,83,84,85,86,87,88,89,90,91,92,93,94,95,96,97,98,99,100,101,102,103,104,105,106,107,108,109,110,111,112,113,114,115,116,117,118,119,120,121,122,123,124,125,126,127,128,129,130,131,132,133,134,135,136,137,138,139,140,141,142,143,144,145,146,147,148,149,150,151,152,153,154,155,156,157,158,159,160,161,162,163,164,165,166,167,168,169,170,171,172,173,174,175,176,177,178,179,180,181,182,183,184,185,186,187,188,189,190,191,192,193,194,195,196,197,198,199,200,201,202,203,204,205,206,207,208,209,210,211,212,213,214,215,216,217,218,219,220,221,222,223,224,225,226,227,228,229,230,231,232,233,234,235,236,237,238,239,240,241,242,243,244,245,246,247,248,249,250,251,252,253,254,255,256,257,258,259,260,261,262,263,264,265,266,267,268,269,270,271,272,273,274,275,276,277,278,279,280,281,282,283,284,285,286,287,288,289,290,291,292,293,294,295,296,297,298,299,300,301,302,303,304,305,306,307,308,309,310,311,312,313,314,315,316,317,318,319,320,321,322,323,324,325,326,327,328,329,330,331,332,333,334,335,336,337,338,339,340,341,342,343,344,345,346,347,348,349,350,351,352,353,354,355,356,357,358,359,360,361,362,363,364,365,366,367,368,369,370,371,372,373,374,375,376,377,378,379,380,381,382,383,384,385,386,387,388,389,390,391,392,393,394,395,396,397,398,399,400,401,402,403,404,405,406,407,408,409,410,411,412,413,414,415,416,417,418,419,420,421,422,423,424,425,426,427,428,429,430,431,432,433,434,435,436,437,438,439,440,441,442,443,444,445,446,447,448,449,450,451,452,453,454,455,456,457,458,459,460,461,462,463,464,465,466,467,468,469,470,471,472,473,474,475,476,477,478,479,480,481,482,483,484,485,486,487,488,489,490,491,492,493,494,495,496,497,498,499,500],"tree_info":[0,0,0,0,0,0,0,0,0,0,0,0,0,0,0,0,0,0,0,0,0,0,0,0,0,0,0,0,0,0,0,0,0,0,0,0,0,0,0,0,0,0,0,0,0,0,0,0,0,0,0,0,0,0,0,0,0,0,0,0,0,0,0,0,0,0,0,0,0,0,0,0,0,0,0,0,0,0,0,0,0,0,0,0,0,0,0,0,0,0,0,0,0,0,0,0,0,0,0,0,0,0,0,0,0,0,0,0,0,0,0,0,0,0,0,0,0,0,0,0,0,0,0,0,0,0,0,0,0,0,0,0,0,0,0,0,0,0,0,0,0,0,0,0,0,0,0,0,0,0,0,0,0,0,0,0,0,0,0,0,0,0,0,0,0,0,0,0,0,0,0,0,0,0,0,0,0,0,0,0,0,0,0,0,0,0,0,0,0,0,0,0,0,0,0,0,0,0,0,0,0,0,0,0,0,0,0,0,0,0,0,0,0,0,0,0,0,0,0,0,0,0,0,0,0,0,0,0,0,0,0,0,0,0,0,0,0,0,0,0,0,0,0,0,0,0,0,0,0,0,0,0,0,0,0,0,0,0,0,0,0,0,0,0,0,0,0,0,0,0,0,0,0,0,0,0,0,0,0,0,0,0,0,0,0,0,0,0,0,0,0,0,0,0,0,0,0,0,0,0,0,0,0,0,0,0,0,0,0,0,0,0,0,0,0,0,0,0,0,0,0,0,0,0,0,0,0,0,0,0,0,0,0,0,0,0,0,0,0,0,0,0,0,0,0,0,0,0,0,0,0,0,0,0,0,0,0,0,0,0,0,0,0,0,0,0,0,0,0,0,0,0,0,0,0,0,0,0,0,0,0,0,0,0,0,0,0,0,0,0,0,0,0,0,0,0,0,0,0,0,0,0,0,0,0,0,0,0,0,0,0,0,0,0,0,0,0,0,0,0,0,0,0,0,0,0,0,0,0,0,0,0,0,0,0,0,0,0,0,0,0,0,0,0,0,0,0,0,0,0,0,0,0,0,0,0,0,0,0,0,0,0,0,0,0,0,0,0,0,0,0,0,0,0,0,0,0,0,0,0,0,0,0,0,0,0,0,0,0,0,0,0,0,0,0,0,0,0,0,0],"trees":[{"base_weights":[3.208109E4,2.8807773E4,3.6632035E4,2.5536281E4,3.074942E4,3.50719E4,4.0995746E4,2.372889E2,2.6775516E2,2.8517535E2,3.183721E2,3.3796268E2,3.7208377E2,3.7093777E2,4.2216507E2],"categories":[],"categories_nodes":[],"categories_segments":[],"categories_sizes":[],"default_left":[1,0,0,0,0,1,0,0,0,0,0,0,0,0,0],"id":0,"left_children":[1,3,5,7,9,11,13,-1,-1,-1,-1,-1,-1,-1,-1],"loss_changes":[2.1642105E12,5.3627113E11,4.125182E11,6.990856E10,1.2789691E11,1.208337E11,7.468797E10,0E0,0E0,0E0,0E0,0E0,0E0,0E0,0E0],"parents":[2147483647,0,0,1,1,2,2,3,3,4,4,5,5,6,6],"right_children":[2,4,6,8,10,12,14,-1,-1,-1,-1,-1,-1,-1,-1],"split_conditions":[3.2223E4,2.7232E4,3.981E4,2.3995E4,8E0,3.5699E4,1.67E2,2.372889E2,2.6775516E2,2.8517535E2,3.183721E2,3.3796268E2,3.7208377E2,3.7093777E2,4.2216507E2],"split_indices":[0,0,0,0,3,1,8,0,0,0,0,0,0,0,0],"split_type":[0,0,0,0,0,0,0,0,0,0,0,0,0,0,0],"sum_hessian":[1.45351E5,8.4547E4,6.0804E4,3.1495E4,5.3052E4,4.4797E4,1.6007E4,1.2819E4,1.8676E4,1.7393E4,3.5659E4,2.806E4,1.6737E4,3.822E3,1.2185E4],"tree_param":{"num_deleted":"0","num_feature":"9","num_nodes":"15","size_leaf_vector":"1"}},{"base_weights":[3.1760297E4,2.8519709E4,3.626574E4,2.5280934E4,3.0441938E4,3.47212E4,4.0585836E4,2.3610478E2,2.6596457E2,2.8232373E2,3.1518848E2,3.3594745E2,3.711339E2,3.6722937E2,4.179438E2],"categories":[],"categories_nodes":[],"categories_segments":[],"categories_sizes":[],"default_left":[1,0,0,0,0,1,0,0,0,0,0,0,0,0,0],"id":1,"left_children":[1,3,5,7,9,11,13,-1,-1,-1,-1,-1,-1,-1,-1],"loss_changes":[2.1211434E12,5.2559662E11,4.0431413E11,6.858316E10,1.2535097E11,1.19470555E11,7.319899E10,0E0,0E0,0E0,0E0,0E0,0E0,0E0,0E0],"parents":[2147483647,0,0,1,1,2,2,3,3,4,4,5,5,6,6],"right_children":[2,4,6,8,10,12,14,-1,-1,-1,-1,-1,-1,-1,-1],"split_conditions":[3.2223E4,2.7232E4,3.981E4,2.4213E4,8E0,3.6071E4,1.67E2,2.3610478E2,2.6596457E2,2.8232373E2,3.1518848E2,3.3594745E2,3.711339E2,3.6722937E2,4.179438E2],"split_indices":[0,0,0,0,3,2,8,0,0,0,0,0,0,0,0],"split_type":[0,0,0,0,0,0,0,0,0,0,0,0,0,0,0],"sum_hessian":[1.45351E5,8.4547E4,6.0804E4,3.1495E4,5.3052E4,4.4797E4,1.6007E4,1.3884E4,1.7611E4,1.7393E4,3.5659E4,3.0466E4,1.4331E4,3.822E3,1.2185E4],"tree_param":{"num_deleted":"0","num_feature":"9","num_nodes":"15","size_leaf_vector":"1"}},{"base_weights":[3.144271E4,2.8234525E4,3.5903105E4,2.502814E4,3.0137527E4,3.4374E4,4.0180027E4,2.3314938E2,2.6285785E2,2.7950067E2,3.1203668E2,3.3115988E2,3.6480984E2,3.63558E2,4.1376468E2],"categories":[],"categories_nodes":[],"categories_segments":[],"categories_sizes":[],"default_left":[1,0,0,0,0,1,0,0,0,0,0,0,0,0,0],"id":2,"left_children":[1,3,5,7,9,11,13,-1,-1,-1,-1,-1,-1,-1,-1],"loss_changes":[2.0789487E12,5.1513603E11,3.9626945E11,6.7247276E10,1.2285536E11,1.1752859E11,7.174147E10,0E0,0E0,0E0,0E0,0E0,0E0,0E0,0E0],"parents":[2147483647,0,0,1,1,2,2,3,3,4,4,5,5,6,6],"right_children":[2,4,6,8,10,12,14,-1,-1,-1,-1,-1,-1,-1,-1],"split_conditions":[3.2223E4,2.7232E4,3.981E4,2.4102E4,8E0,3.5699E4,1.67E2,2.3314938E2,2.6285785E2,2.7950067E2,3.1203668E2,3.3115988E2,3.6480984E2,3.63558E2,4.1376468E2],"split_indices":[0,0,0,0,3,1,8,0,0,0,0,0,0,0,0],"split_type":[0,0,0,0,0,0,0,0,0,0,0,0,0,0,0],"sum_hessian":[1.45351E5,8.4547E4,6.0804E4,3.1495E4,5.3052E4,4.4797E4,1.6007E4,1.3341E4,1.8154E4,1.7393E4,3.5659E4,2.806E4,1.6737E4,3.822E3,1.2185E4],"tree_param":{"num_deleted":"0","num_feature":"9","num_nodes":"15","size_leaf_vector":"1"}},{"base_weights":[3.1128303E4,2.7952193E4,3.5544098E4,2.4598645E4,2.9736205E4,3.4030277E4,3.9778273E4,2.2922054E2,2.5757394E2,2.761793E2,3.0813818E2,3.2983093E2,3.6533167E2,3.599234E2,4.0962738E2],"categories":[],"categories_nodes":[],"categories_segments":[],"categories_sizes":[],"default_left":[1,0,0,0,0,1,0,0,0,0,0,0,0,0,0],"id":3,"left_children":[1,3,5,7,9,11,13,-1,-1,-1,-1,-1,-1,-1,-1],"loss_changes":[2.0375761E12,5.0509906E11,3.8839255E11,5.6459526E10,1.2512028E11,1.1620739E11,7.0311215E10,0E0,0E0,0E0,0E0,0E0,0E0,0E0,0E0],"parents":[2147483647,0,0,1,1,2,2,3,3,4,4,5,5,6,6],"right_children":[2,4,6,8,10,12,14,-1,-1,-1,-1,-1,-1,-1,-1],"split_conditions":[3.2223E4,2.6924E4,3.981E4,2.4482E4,8E0,3.644E4,1.67E2,2.2922054E2,2.5757394E2,2.761793E2,3.0813818E2,3.2983093E2,3.6533167E2,3.599234E2,4.0962738E2],"split_indices":[0,0,0,1,3,2,8,0,0,0,0,0,0,0,0],"split_type":[0,0,0,0,0,0,0,0,0,0,0,0,0,0,0],"sum_hessian":[1.45351E5,8.4547E4,6.0804E4,2.9364E4,5.5183E4,4.4797E4,1.6007E4,1.2009E4,1.7355E4,1.8616E4,3.6567E4,3.1593E4,1.3204E4,3.822E3,1.2185E4],"tree_param":{"num_deleted":"0","num_feature":"9","num_nodes":"15","size_leaf_vector":"1"}},{"base_weights":[3.0817037E4,2.7717637E4,3.5252195E4,2.465278E4,2.9650203E4,3.374191E4,3.9380543E4,2.2955804E2,2.596075E2,2.7452756E2,3.0670654E2,3.2495157E2,3.5784375E2,3.563251E2,4.0553143E2],"categories":[],"categories_nodes":[],"categories_segments":[],"categories_sizes":[],"default_left":[1,0,0,0,0,1,0,0,0,0,0,0,0,0,0],"id":4,"left_children":[1,3,5,7,9,11,13,-1,-1,-1,-1,-1,-1,-1,-1],"loss_changes":[1.9970843E12,5.0608053E11,3.7144756E11,7.286135E10,1.1681556E11,1.1032697E11,6.890822E10,0E0,0E0,0E0,0E0,0E0,0E0,0E0,0E0],"parents":[2147483647,0,0,1,1,2,2,3,3,4,4,5,5,6,6],"right_children":[2,4,6,8,10,12,14,-1,-1,-1,-1,-1,-1,-1,-1],"split_conditions":[3.2327E4,2.7474E4,3.981E4,2.4322E4,8E0,3.5699E4,1.67E2,2.2955804E2,2.596075E2,2.7452756E2,3.0670654E2,3.2495157E2,3.5784375E2,3.563251E2,4.0553143E2],"split_indices":[0,0,0,0,3,1,8,0,0,0,0,0,0,0,0],"split_type":[0,0,0,0,0,0,0,0,0,0,0,0,0,0,0],"sum_hessian":[1.45351E5,8.5564E4,5.9787E4,3.3094E4,5.247E4,4.378E4,1.6007E4,1.4413E4,1.8681E4,1.6648E4,3.5822E4,2.7196E4,1.6584E4,3.822E3,1.2185E4],"tree_param":{"num_deleted":"0","num_feature":"9","num_nodes":"15","size_leaf_vector":"1"}},{"base_weights":[3.0508885E4,2.7622543E4,3.517743E4,2.4406266E4,2.9498326E4,3.363356E4,3.8986785E4,2.2726262E2,2.5701157E2,2.725193E2,3.0491766E2,3.1742526E2,3.4919244E2,3.5276282E2,4.0147647E2],"categories":[],"categories_nodes":[],"categories_segments":[],"categories_sizes":[],"default_left":[1,0,0,0,0,0,0,0,0,0,0,0,0,0,0],"id":5,"left_children":[1,3,5,7,9,11,13,-1,-1,-1,-1,-1,-1,-1,-1],"loss_changes":[1.9576494E12,5.4119105E11,3.252599E11,7.141432E10,1.2577879E11,9.497582E10,6.7536683E10,0E0,0E0,0E0,0E0,0E0,0E0,0E0,0E0],"parents":[2147483647,0,0,1,1,2,2,3,3,4,4,5,5,6,6],"right_children":[2,4,6,8,10,12,14,-1,-1,-1,-1,-1,-1,-1,-1],"split_conditions":[3.2794E4,2.7474E4,3.981E4,2.4322E4,8E0,3.4388E4,1.67E2,2.2726262E2,2.5701157E2,2.725193E2,3.0491766E2,3.1742526E2,3.4919244E2,3.5276282E2,4.0147647E2],"split_indices":[0,0,0,0,3,2,8,0,0,0,0,0,0,0,0],"split_type":[0,0,0,0,0,0,0,0,0,0,0,0,0,0,0],"sum_hessian":[1.45351E5,8.9824E4,5.5527E4,3.3094E4,5.673E4,3.952E4,1.6007E4,1.4413E4,1.8681E4,1.7404E4,3.9326E4,1.6005E4,2.3515E4,3.822E3,1.2185E4],"tree_param":{"num_deleted":"0","num_feature":"9","num_nodes":"15","size_leaf_vector":"1"}},{"base_weights":[3.0203812E4,2.7048086E4,3.4390824E4,2.3865424E4,2.8793691E4,3.2940777E4,3.8596965E4,2.2220905E2,2.5002023E2,2.6763727E2,2.984704E2,3.1843588E2,3.527421E2,3.5148938E2,3.9822794E2],"categories":[],"categories_nodes":[],"categories_segments":[],"categories_sizes":[],"default_left":[1,0,0,0,0,1,0,0,0,0,0,0,0,0,0],"id":6,"left_children":[1,3,5,7,9,11,13,-1,-1,-1,-1,-1,-1,-1,-1],"loss_changes":[1.9196155E12,4.5981735E11,3.7970195E11,5.4331965E10,1.1364886E11,1.1782219E11,6.6261615E10,0E0,0E0,0E0,0E0,0E0,0E0,0E0,0E0],"parents":[2147483647,0,0,1,1,2,2,3,3,4,4,5,5,6,6],"right_children":[2,4,6,8,10,12,14,-1,-1,-1,-1,-1,-1,-1,-1],"split_conditions":[3.2059E4,2.6924E4,3.981E4,2.4482E4,8E0,3.5975E4,1.72E2,2.2220905E2,2.5002023E2,2.6763727E2,2.984704E2,3.1843588E2,3.527421E2,3.5148938E2,3.9822794E2],"split_indices":[0,0,0,1,3,2,8,0,0,0,0,0,0,0,0],"split_type":[0,0,0,0,0,0,0,0,0,0,0,0,0,0,0],"sum_hessian":[1.45351E5,8.2887E4,6.2464E4,2.9364E4,5.3523E4,4.6457E4,1.6007E4,1.2009E4,1.7355E4,1.8294E4,3.5229E4,3.1609E4,1.4848E4,4.206E3,1.1801E4],"tree_param":{"num_deleted":"0","num_feature":"9","num_nodes":"15","size_leaf_vector":"1"}},{"base_weights":[2.9901791E4,2.7071732E4,3.4479305E4,2.4035045E4,2.8981568E4,3.296689E4,3.821104E4,2.2371701E2,2.5375241E2,2.6742325E2,2.9938507E2,3.1106705E2,3.423161E2,3.457221E2,3.9349478E2],"categories":[],"categories_nodes":[],"categories_segments":[],"categories_sizes":[],"default_left":[1,0,0,0,0,0,0,0,0,0,0,0,0,0,0],"id":7,"left_children":[1,3,5,7,9,11,13,-1,-1,-1,-1,-1,-1,-1,-1],"loss_changes":[1.8820429E12,5.2025308E11,3.121359E11,7.675786E10,1.1734824E11,9.190978E10,6.495509E10,0E0,0E0,0E0,0E0,0E0,0E0,0E0,0E0],"parents":[2147483647,0,0,1,1,2,2,3,3,4,4,5,5,6,6],"right_children":[2,4,6,8,10,12,14,-1,-1,-1,-1,-1,-1,-1,-1],"split_conditions":[3.2794E4,2.7696E4,3.981E4,2.4541E4,8E0,3.4388E4,1.67E2,2.2371701E2,2.5375241E2,2.6742325E2,2.9938507E2,3.1106705E2,3.423161E2,3.457221E2,3.9349478E2],"split_indices":[0,0,0,0,3,2,8,0,0,0,0,0,0,0,0],"split_type":[0,0,0,0,0,0,0,0,0,0,0,0,0,0,0],"sum_hessian":[1.45351E5,8.9824E4,5.5527E4,3.4686E4,5.5138E4,3.952E4,1.6007E4,1.5485E4,1.9201E4,1.6517E4,3.8621E4,1.6005E4,2.3515E4,3.822E3,1.2185E4],"tree_param":{"num_deleted":"0","num_feature":"9","num_nodes":"15","size_leaf_vector":"1"}},{"base_weights":[2.960279E4,2.6580262E4,3.380506E4,2.338888E4,2.8278006E4,3.236641E4,3.7828977E4,2.1768445E2,2.4508841E2,2.6264514E2,2.9302313E2,3.1151428E2,3.4401373E2,3.444753E2,3.9031137E2],"categories":[],"categories_nodes":[],"categories_segments":[],"categories_sizes":[],"default_left":[1,0,0,0,0,1,0,0,0,0,0,0,0,0,0],"id":8,"left_children":[1,3,5,7,9,11,13,-1,-1,-1,-1,-1,-1,-1,-1],"loss_changes":[1.8452924E12,4.574308E11,3.5077803E11,5.27591E10,1.1304069E11,1.0968944E11,6.3726158E10,0E0,0E0,0E0,0E0,0E0,0E0,0E0,0E0],"parents":[2147483647,0,0,1,1,2,2,3,3,4,4,5,5,6,6],"right_children":[2,4,6,8,10,12,14,-1,-1,-1,-1,-1,-1,-1,-1],"split_conditions":[3.2223E4,2.6924E4,3.981E4,2.4482E4,8E0,3.5699E4,1.72E2,2.1768445E2,2.4508841E2,2.6264514E2,2.9302313E2,3.1151428E2,3.4401373E2,3.444753E2,3.9031137E2],"split_indices":[0,0,0,1,3,1,8,0,0,0,0,0,0,0,0],"split_type":[0,0,0,0,0,0,0,0,0,0,0,0,0,0,0],"sum_hessian":[1.45351E5,8.4547E4,6.0804E4,2.9364E4,5.5183E4,4.4797E4,1.6007E4,1.2009E4,1.7355E4,1.8616E4,3.6567E4,2.806E4,1.6737E4,4.206E3,1.1801E4],"tree_param":{"num_deleted":"0","num_feature":"9","num_nodes":"15","size_leaf_vector":"1"}},{"base_weights":[2.9306777E4,2.6532219E4,3.3794523E4,2.355441E4,2.8405023E4,3.24864E4,3.800308E4,2.1919527E2,2.4871681E2,2.6209375E2,2.9343332E2,3.1408878E2,3.4741803E2,3.451737E2,3.9237393E2],"categories":[],"categories_nodes":[],"categories_segments":[],"categories_sizes":[],"default_left":[1,0,1,0,0,0,0,0,0,0,0,0,0,0,0],"id":9,"left_children":[1,3,5,7,9,11,13,-1,-1,-1,-1,-1,-1,-1,-1],"loss_changes":[1.8089614E12,5.002714E11,3.0446453E11,7.4155295E10,1.1282678E11,1.0187545E11,5.527044E10,0E0,0E0,0E0,0E0,0E0,0E0,0E0,0E0],"parents":[2147483647,0,0,1,1,2,2,3,3,4,4,5,5,6,6],"right_children":[2,4,6,8,10,12,14,-1,-1,-1,-1,-1,-1,-1,-1],"split_conditions":[3.2794E4,2.7696E4,3.9742E4,2.4541E4,8E0,3.7924E4,1.72E2,2.1919527E2,2.4871681E2,2.6209375E2,2.9343332E2,3.1408878E2,3.4741803E2,3.451737E2,3.9237393E2],"split_indices":[0,0,2,0,3,0,8,0,0,0,0,0,0,0,0],"split_type":[0,0,0,0,0,0,0,0,0,0,0,0,0,0,0],"sum_hessian":[1.45351E5,8.9824E4,5.5527E4,3.4686E4,5.5138E4,4.2367E4,1.316E4,1.5485E4,1.9201E4,1.6517E4,3.8621E4,2.868E4,1.3687E4,3.449E3,9.711E3],"tree_param":{"num_deleted":"0","num_feature":"9","num_nodes":"15","size_leaf_vector":"1"}},{"base_weights":[2.9013727E4,2.5980035E4,3.303882E4,2.2921867E4,2.7657361E4,3.1611305E4,3.6996004E4,2.174115E2,2.4420757E2,2.570846E2,2.8668643E2,3.0331134E2,3.350413E2,3.5248633E2,3.927802E2],"categories":[],"categories_nodes":[],"categories_segments":[],"categories_sizes":[],"default_left":[1,0,0,1,0,1,1,0,0,0,0,0,0,0,0],"id":10,"left_children":[1,3,5,7,9,11,13,-1,-1,-1,-1,-1,-1,-1,-1],"loss_changes":[1.7740312E12,4.2453906E11,3.516924E11,5.1437896E10,1.0475274E11,1.102305E11,6.4625836E10,0E0,0E0,0E0,0E0,0E0,0E0,0E0,0E0],"parents":[2147483647,0,0,1,1,2,2,3,3,4,4,5,5,6,6],"right_children":[2,4,6,8,10,12,14,-1,-1,-1,-1,-1,-1,-1,-1],"split_conditions":[3.2059E4,2.6924E4,3.9637E4,2.5128E4,8E0,3.5193E4,4.0283E4,2.174115E2,2.4420757E2,2.570846E2,2.8668643E2,3.0331134E2,3.350413E2,3.5248633E2,3.927802E2],"split_indices":[0,0,0,1,3,1,2,0,0,0,0,0,0,0,0],"split_type":[0,0,0,0,0,0,0,0,0,0,0,0,0,0,0],"sum_hessian":[1.45351E5,8.2887E4,6.2464E4,2.9364E4,5.3523E4,4.5911E4,1.6553E4,1.6434E4,1.293E4,1.8294E4,3.5229E4,2.7398E4,1.8513E4,9.384E3,7.169E3],"tree_param":{"num_deleted":"0","num_feature":"9","num_nodes":"15","size_leaf_vector":"1"}},{"base_weights":[2.8723607E4,2.6003281E4,3.312363E4,2.3155484E4,2.7886285E4,3.1838328E4,3.725877E4,2.1476291E2,2.4436966E2,2.570853E2,2.8800375E2,3.104938E2,3.48122E2,3.3826495E2,3.8474182E2],"categories":[],"categories_nodes":[],"categories_segments":[],"categories_sizes":[],"default_left":[1,0,1,0,0,0,0,0,0,0,0,0,0,0,0],"id":11,"left_children":[1,3,5,7,9,11,13,-1,-1,-1,-1,-1,-1,-1,-1],"loss_changes":[1.7389249E12,4.8103634E11,2.9394102E11,7.642441E10,1.0688764E11,9.8322874E10,5.360111E10,0E0,0E0,0E0,0E0,0E0,0E0,0E0,0E0],"parents":[2147483647,0,0,1,1,2,2,3,3,4,4,5,5,6,6],"right_children":[2,4,6,8,10,12,14,-1,-1,-1,-1,-1,-1,-1,-1],"split_conditions":[3.2794E4,2.7842E4,3.9742E4,2.4541E4,8E0,3.9637E4,1.72E2,2.1476291E2,2.4436966E2,2.570853E2,2.8800375E2,3.104938E2,3.48122E2,3.3826495E2,3.8474182E2],"split_indices":[0,0,2,0,3,0,8,0,0,0,0,0,0,0,0],"split_type":[0,0,0,0,0,0,0,0,0,0,0,0,0,0,0],"sum_hessian":[1.45351E5,8.9824E4,5.5527E4,3.5758E4,5.4066E4,4.2367E4,1.316E4,1.5485E4,2.0273E4,1.5993E4,3.8073E4,3.3493E4,8.874E3,3.449E3,9.711E3],"tree_param":{"num_deleted":"0","num_feature":"9","num_nodes":"15","size_leaf_vector":"1"}},{"base_weights":[2.8436387E4,2.5462102E4,3.2382662E4,2.2463914E4,2.7106527E4,3.1090012E4,3.659201E4,2.0657037E2,2.3415999E2,2.5196788E2,2.8097488E2,2.9216217E2,3.2419113E2,3.499056E2,3.9201346E2],"categories":[],"categories_nodes":[],"categories_segments":[],"categories_sizes":[],"default_left":[1,0,1,0,0,0,1,0,0,0,0,0,0,0,0],"id":12,"left_children":[1,3,5,7,9,11,13,-1,-1,-1,-1,-1,-1,-1,-1],"loss_changes":[1.7052278E12,4.0805545E11,3.3874877E11,5.0032804E10,1.00583604E11,1.18086435E11,5.9930313E10,0E0,0E0,0E0,0E0,0E0,0E0,0E0,0E0],"parents":[2147483647,0,0,1,1,2,2,3,3,4,4,5,5,6,6],"right_children":[2,4,6,8,10,12,14,-1,-1,-1,-1,-1,-1,-1,-1],"split_conditions":[3.2059E4,2.6924E4,3.9671E4,2.3417E4,8E0,3.4187E4,4.2272E4,2.0657037E2,2.3415999E2,2.5196788E2,2.8097488E2,2.9216217E2,3.2419113E2,3.499056E2,3.9201346E2],"split_indices":[0,0,1,0,3,2,2,0,0,0,0,0,0,0,0],"split_type":[0,0,0,0,0,0,0,0,0,0,0,0,0,0,0],"sum_hessian":[1.45351E5,8.2887E4,6.2464E4,2.9364E4,5.3523E4,4.7795E4,1.4669E4,1.0141E4,1.9223E4,1.8294E4,3.5229E4,1.9843E4,2.7952E4,9.099E3,5.57E3],"tree_param":{"num_deleted":"0","num_feature":"9","num_nodes":"15","size_leaf_vector":"1"}},{"base_weights":[2.815204E4,2.54846E4,3.2466523E4,2.2692123E4,2.7331023E4,3.115357E4,3.638242E4,2.1045465E2,2.394878E2,2.5195657E2,2.8227322E2,2.9272238E2,3.240878E2,3.289624E2,3.7536783E2],"categories":[],"categories_nodes":[],"categories_segments":[],"categories_sizes":[],"default_left":[1,0,1,0,0,0,0,0,0,0,0,0,0,0,0],"id":13,"left_children":[1,3,5,7,9,11,13,-1,-1,-1,-1,-1,-1,-1,-1],"loss_changes":[1.671967E12,4.6253107E11,2.8435703E11,7.3492595E10,1.0276464E11,9.72701E10,5.4853108E10,0E0,0E0,0E0,0E0,0E0,0E0,0E0,0E0],"parents":[2147483647,0,0,1,1,2,2,3,3,4,4,5,5,6,6],"right_children":[2,4,6,8,10,12,14,-1,-1,-1,-1,-1,-1,-1,-1],"split_conditions":[3.2794E4,2.7842E4,3.9851E4,2.4541E4,8E0,3.4388E4,1.72E2,2.1045465E2,2.394878E2,2.5195657E2,2.8227322E2,2.9272238E2,3.240878E2,3.289624E2,3.7536783E2],"split_indices":[0,0,1,0,3,2,8,0,0,0,0,0,0,0,0],"split_type":[0,0,0,0,0,0,0,0,0,0,0,0,0,0,0],"sum_hessian":[1.45351E5,8.9824E4,5.5527E4,3.5758E4,5.4066E4,4.1591E4,1.3936E4,1.5485E4,2.0273E4,1.5993E4,3.8073E4,1.6654E4,2.4937E4,3.474E3,1.0462E4],"tree_param":{"num_deleted":"0","num_feature":"9","num_nodes":"15","size_leaf_vector":"1"}},{"base_weights":[2.7870535E4,2.4888236E4,3.1653727E4,2.2015121E4,2.6512736E4,3.028668E4,3.5575734E4,2.0861328E2,2.3479861E2,2.466672E2,2.7490533E2,2.9056796E2,3.2162555E2,3.236964E2,3.67554E2],"categories":[],"categories_nodes":[],"categories_segments":[],"categories_sizes":[],"default_left":[1,0,0,1,0,1,0,0,0,0,0,0,0,0,0],"id":14,"left_children":[1,3,5,7,9,11,13,-1,-1,-1,-1,-1,-1,-1,-1],"loss_changes":[1.6391592E12,3.7880018E11,3.4243556E11,4.913732E10,9.3042246E10,1.08687E11,6.1421388E10,0E0,0E0,0E0,0E0,0E0,0E0,0E0,0E0],"parents":[2147483647,0,0,1,1,2,2,3,3,4,4,5,5,6,6],"right_children":[2,4,6,8,10,12,14,-1,-1,-1,-1,-1,-1,-1,-1],"split_conditions":[3.1903E4,2.6924E4,3.9637E4,2.5128E4,8E0,3.5193E4,1.72E2,2.0861328E2,2.3479861E2,2.466672E2,2.7490533E2,2.9056796E2,3.2162555E2,3.236964E2,3.67554E2],"split_indices":[0,0,0,1,3,1,8,0,0,0,0,0,0,0,0],"split_type":[0,0,0,0,0,0,0,0,0,0,0,0,0,0,0],"sum_hessian":[1.45351E5,8.1283E4,6.4068E4,2.9364E4,5.1919E4,4.7515E4,1.6553E4,1.6434E4,1.293E4,1.7987E4,3.3932E4,2.8709E4,1.8806E4,4.46E3,1.2093E4],"tree_param":{"num_deleted":"0","num_feature":"9","num_nodes":"15","size_leaf_vector":"1"}},{"base_weights":[2.7591844E4,2.497636E4,3.1822293E4,2.2431037E4,2.6925506E4,3.0597865E4,3.5916332E4,2.0804E2,2.3772992E2,2.4759676E2,2.7784424E2,2.9559467E2,3.2751282E2,3.1719543E2,3.687339E2],"categories":[],"categories_nodes":[],"categories_segments":[],"categories_sizes":[],"default_left":[1,0,1,0,0,0,0,0,0,0,0,0,0,0,0],"id":15,"left_children":[1,3,5,7,9,11,13,-1,-1,-1,-1,-1,-1,-1,-1],"loss_changes":[1.6074838E12,4.4503663E11,2.7725608E11,8.4573946E10,9.393144E10,9.463189E10,5.015444E10,0E0,0E0,0E0,0E0,0E0,0E0,0E0,0E0],"parents":[2147483647,0,0,1,1,2,2,3,3,4,4,5,5,6,6],"right_children":[2,4,6,8,10,12,14,-1,-1,-1,-1,-1,-1,-1,-1],"split_conditions":[3.2794E4,2.8266E4,3.9917E4,2.4966E4,8E0,3.7924E4,1.58E2,2.0804E2,2.3772992E2,2.4759676E2,2.7784424E2,2.9559467E2,3.2751282E2,3.1719543E2,3.687339E2],"split_indices":[0,0,2,0,3,0,8,0,0,0,0,0,0,0,0],"split_type":[0,0,0,0,0,0,0,0,0,0,0,0,0,0,0],"sum_hessian":[1.45351E5,8.9824E4,5.5527E4,3.896E4,5.0864E4,4.275E4,1.2777E4,1.7617E4,2.1343E4,1.4452E4,3.6412E4,2.8852E4,1.3898E4,2.379E3,1.0398E4],"tree_param":{"num_deleted":"0","num_feature":"9","num_nodes":"15","size_leaf_vector":"1"}},{"base_weights":[2.7315941E4,2.4456852E4,3.1109379E4,2.1575076E4,2.603743E4,2.9780857E4,3.4963035E4,2.003043E2,2.2642694E2,2.4203041E2,2.698929E2,2.8543652E2,3.1586368E2,3.146109E2,3.6014703E2],"categories":[],"categories_nodes":[],"categories_segments":[],"categories_sizes":[],"default_left":[1,0,0,0,0,1,0,0,0,0,0,0,0,0,0],"id":16,"left_children":[1,3,5,7,9,11,13,-1,-1,-1,-1,-1,-1,-1,-1],"loss_changes":[1.5756993E12,3.7698404E11,3.187587E11,4.797235E10,9.279898E10,1.02873694E11,5.7822675E10,0E0,0E0,0E0,0E0,0E0,0E0,0E0,0E0],"parents":[2147483647,0,0,1,1,2,2,3,3,4,4,5,5,6,6],"right_children":[2,4,6,8,10,12,14,-1,-1,-1,-1,-1,-1,-1,-1],"split_conditions":[3.2059E4,2.6924E4,3.981E4,2.4482E4,8E0,3.5193E4,1.65E2,2.003043E2,2.2642694E2,2.4203041E2,2.698929E2,2.8543652E2,3.1586368E2,3.146109E2,3.6014703E2],"split_indices":[0,0,0,1,3,1,8,0,0,0,0,0,0,0,0],"split_type":[0,0,0,0,0,0,0,0,0,0,0,0,0,0,0],"sum_hessian":[1.45351E5,8.2887E4,6.2464E4,2.9364E4,5.3523E4,4.6457E4,1.6007E4,1.2009E4,1.7355E4,1.8294E4,3.5229E4,2.7577E4,1.888E4,3.704E3,1.2303E4],"tree_param":{"num_deleted":"0","num_feature":"9","num_nodes":"15","size_leaf_vector":"1"}},{"base_weights":[2.7042799E4,2.4478436E4,3.1190559E4,2.1981305E4,2.6390678E4,2.9961568E4,3.5144562E4,2.0384483E2,2.3298341E2,2.4266072E2,2.723325E2,2.895256E2,3.207359E2,3.112027E2,3.609607E2],"categories":[],"categories_nodes":[],"categories_segments":[],"categories_sizes":[],"default_left":[1,0,1,0,0,0,0,0,0,0,0,0,0,0,0],"id":17,"left_children":[1,3,5,7,9,11,13,-1,-1,-1,-1,-1,-1,-1,-1],"loss_changes":[1.5452571E12,4.283433E11,2.6878358E11,8.146177E10,9.0391446E10,8.935965E10,4.9272586E10,0E0,0E0,0E0,0E0,0E0,0E0,0E0,0E0],"parents":[2147483647,0,0,1,1,2,2,3,3,4,4,5,5,6,6],"right_children":[2,4,6,8,10,12,14,-1,-1,-1,-1,-1,-1,-1,-1],"split_conditions":[3.2794E4,2.8266E4,3.9742E4,2.4966E4,8E0,3.7924E4,1.58E2,2.0384483E2,2.3298341E2,2.4266072E2,2.723325E2,2.895256E2,3.207359E2,3.112027E2,3.609607E2],"split_indices":[0,0,2,0,3,0,8,0,0,0,0,0,0,0,0],"split_type":[0,0,0,0,0,0,0,0,0,0,0,0,0,0,0],"sum_hessian":[1.45351E5,8.9824E4,5.5527E4,3.896E4,5.0864E4,4.2367E4,1.316E4,1.7617E4,2.1343E4,1.4452E4,3.6412E4,2.868E4,1.3687E4,2.523E3,1.0637E4],"tree_param":{"num_deleted":"0","num_feature":"9","num_nodes":"15","size_leaf_vector":"1"}},{"base_weights":[2.6772385E4,2.3905375E4,3.0409328E4,2.0977885E4,2.537883E4,2.9091371E4,3.4190508E4,1.9368463E2,2.1901382E2,2.3640082E2,2.633939E2,2.738099E2,3.0364905E2,3.107456E2,3.533703E2],"categories":[],"categories_nodes":[],"categories_segments":[],"categories_sizes":[],"default_left":[1,0,0,0,0,0,0,0,0,0,0,0,0,0,0],"id":18,"left_children":[1,3,5,7,9,11,13,-1,-1,-1,-1,-1,-1,-1,-1],"loss_changes":[1.514882E12,3.5008597E11,3.1828476E11,4.0032535E10,8.967841E10,1.0267237E11,5.804078E10,0E0,0E0,0E0,0E0,0E0,0E0,0E0,0E0],"parents":[2147483647,0,0,1,1,2,2,3,3,4,4,5,5,6,6],"right_children":[2,4,6,8,10,12,14,-1,-1,-1,-1,-1,-1,-1,-1],"split_conditions":[3.1903E4,2.6601E4,3.9637E4,2.3928E4,8E0,3.4187E4,1.72E2,1.9368463E2,2.1901382E2,2.3640082E2,2.633939E2,2.738099E2,3.0364905E2,3.107456E2,3.533703E2],"split_indices":[0,0,0,1,3,2,8,0,0,0,0,0,0,0,0],"split_type":[0,0,0,0,0,0,0,0,0,0,0,0,0,0,0],"sum_hessian":[1.45351E5,8.1283E4,6.4068E4,2.7219E4,5.4064E4,4.7515E4,1.6553E4,9.932E3,1.7287E4,1.9248E4,3.4816E4,2.0289E4,2.7226E4,4.46E3,1.2093E4],"tree_param":{"num_deleted":"0","num_feature":"9","num_nodes":"15","size_leaf_vector":"1"}},{"base_weights":[2.6504676E4,2.399018E4,3.0571781E4,2.153998E4,2.5866482E4,2.931155E4,3.4330477E4,1.9974191E2,2.2831421E2,2.3782207E2,2.669306E2,2.7501895E2,3.0518967E2,3.2779904E2,3.674928E2],"categories":[],"categories_nodes":[],"categories_segments":[],"categories_sizes":[],"default_left":[1,0,1,0,0,0,1,0,0,0,0,0,0,0,0],"id":19,"left_children":[1,3,5,7,9,11,13,-1,-1,-1,-1,-1,-1,-1,-1],"loss_changes":[1.4857399E12,4.1239655E11,2.6202237E11,7.832863E10,8.699825E10,9.003912E10,5.10667E10,0E0,0E0,0E0,0E0,0E0,0E0,0E0,0E0],"parents":[2147483647,0,0,1,1,2,2,3,3,4,4,5,5,6,6],"right_children":[2,4,6,8,10,12,14,-1,-1,-1,-1,-1,-1,-1,-1],"split_conditions":[3.2794E4,2.8266E4,3.9851E4,2.4966E4,8E0,3.4388E4,4.2272E4,1.9974191E2,2.2831421E2,2.3782207E2,2.669306E2,2.7501895E2,3.0518967E2,3.2779904E2,3.674928E2],"split_indices":[0,0,1,0,3,2,2,0,0,0,0,0,0,0,0],"split_type":[0,0,0,0,0,0,0,0,0,0,0,0,0,0,0],"sum_hessian":[1.45351E5,8.9824E4,5.5527E4,3.896E4,5.0864E4,4.1591E4,1.3936E4,1.7617E4,2.1343E4,1.4452E4,3.6412E4,1.6654E4,2.4937E4,8.501E3,5.435E3],"tree_param":{"num_deleted":"0","num_feature":"9","num_nodes":"15","size_leaf_vector":"1"}},{"base_weights":[2.6239645E4,2.3750287E4,3.0266086E4,2.1324592E4,2.5607826E4,2.901845E4,3.3987223E4,1.9981473E2,2.2809152E2,2.3544402E2,2.6426135E2,2.691607E2,3.0037817E2,3.2452145E2,3.6381854E2],"categories":[],"categories_nodes":[],"categories_segments":[],"categories_sizes":[],"default_left":[1,0,1,1,0,0,1,0,0,0,0,0,0,0,0],"id":20,"left_children":[1,3,5,7,9,11,13,-1,-1,-1,-1,-1,-1,-1,-1],"loss_changes":[1.4561785E12,4.041883E11,2.5680465E11,7.722972E10,8.526391E10,8.832575E10,5.005168E10,0E0,0E0,0E0,0E0,0E0,0E0,0E0,0E0],"parents":[2147483647,0,0,1,1,2,2,3,3,4,4,5,5,6,6],"right_children":[2,4,6,8,10,12,14,-1,-1,-1,-1,-1,-1,-1,-1],"split_conditions":[3.2794E4,2.8266E4,3.9851E4,2.5726E4,8E0,3.3513E4,4.2272E4,1.9981473E2,2.2809152E2,2.3544402E2,2.6426135E2,2.691607E2,3.0037817E2,3.2452145E2,3.6381854E2],"split_indices":[0,0,1,1,3,2,2,0,0,0,0,0,0,0,0],"split_type":[0,0,0,0,0,0,0,0,0,0,0,0,0,0,0],"sum_hessian":[1.45351E5,8.9824E4,5.5527E4,3.896E4,5.0864E4,4.1591E4,1.3936E4,2.0462E4,1.8498E4,1.4452E4,3.6412E4,1.359E4,2.8001E4,8.501E3,5.435E3],"tree_param":{"num_deleted":"0","num_feature":"9","num_nodes":"15","size_leaf_vector":"1"}},{"base_weights":[2.5977264E4,2.3193492E4,2.9508613E4,2.0348664E4,2.4625342E4,2.8248684E4,3.3289555E4,1.8668214E2,2.119925E2,2.2939038E2,2.5556927E2,2.7065277E2,3.003022E2,2.9906775E2,3.4305475E2],"categories":[],"categories_nodes":[],"categories_segments":[],"categories_sizes":[],"default_left":[1,0,0,0,0,1,0,0,0,0,0,0,0,0,0],"id":21,"left_children":[1,3,5,7,9,11,13,-1,-1,-1,-1,-1,-1,-1,-1],"loss_changes":[1.4281857E12,3.3059924E11,3.042674E11,3.851105E10,8.434745E10,1.005123E11,5.3986984E10,0E0,0E0,0E0,0E0,0E0,0E0,0E0,0E0],"parents":[2147483647,0,0,1,1,2,2,3,3,4,4,5,5,6,6],"right_children":[2,4,6,8,10,12,14,-1,-1,-1,-1,-1,-1,-1,-1],"split_conditions":[3.1903E4,2.6601E4,3.981E4,2.3702E4,8E0,3.5193E4,1.65E2,1.8668214E2,2.119925E2,2.2939038E2,2.5556927E2,2.7065277E2,3.003022E2,2.9906775E2,3.4305475E2],"split_indices":[0,0,0,1,3,1,8,0,0,0,0,0,0,0,0],"split_type":[0,0,0,0,0,0,0,0,0,0,0,0,0,0,0],"sum_hessian":[1.45351E5,8.1283E4,6.4068E4,2.7219E4,5.4064E4,4.8061E4,1.6007E4,9.155E3,1.8064E4,1.9248E4,3.4816E4,2.8888E4,1.9173E4,3.704E3,1.2303E4],"tree_param":{"num_deleted":"0","num_feature":"9","num_nodes":"15","size_leaf_vector":"1"}},{"base_weights":[2.5717504E4,2.3295545E4,2.9696836E4,2.0896455E4,2.5113523E4,2.8529736E4,3.3562402E4,1.9281209E2,2.2089293E2,2.2812392E2,2.5825613E2,2.754679E2,3.05324E2,2.955846E2,3.4475433E2],"categories":[],"categories_nodes":[],"categories_segments":[],"categories_sizes":[],"default_left":[1,0,1,0,0,0,0,0,0,0,0,0,0,0,0],"id":22,"left_children":[1,3,5,7,9,11,13,-1,-1,-1,-1,-1,-1,-1,-1],"loss_changes":[1.4001761E12,3.935893E11,2.4713678E11,7.464183E10,8.363862E10,8.2321605E10,4.558055E10,0E0,0E0,0E0,0E0,0E0,0E0,0E0,0E0],"parents":[2147483647,0,0,1,1,2,2,3,3,4,4,5,5,6,6],"right_children":[2,4,6,8,10,12,14,-1,-1,-1,-1,-1,-1,-1,-1],"split_conditions":[3.2853E4,2.8266E4,3.9917E4,2.4752E4,7E0,3.7924E4,1.58E2,1.9281209E2,2.2089293E2,2.2812392E2,2.5825613E2,2.754679E2,3.05324E2,2.955846E2,3.4475433E2],"split_indices":[0,0,2,0,3,0,8,0,0,0,0,0,0,0,0],"split_type":[0,0,0,0,0,0,0,0,0,0,0,0,0,0,0],"sum_hessian":[1.45351E5,9.0361E4,5.499E4,3.896E4,5.1401E4,4.2244E4,1.2746E4,1.6557E4,2.2403E4,1.2155E4,3.9246E4,2.8346E4,1.3898E4,2.373E3,1.0373E4],"tree_param":{"num_deleted":"0","num_feature":"9","num_nodes":"15","size_leaf_vector":"1"}},{"base_weights":[2.5460344E4,2.2730959E4,2.8922705E4,2.0098535E4,2.4219373E4,2.7749328E4,3.2849383E4,1.9105394E2,2.1612444E2,2.2532118E2,2.5113075E2,2.5821164E2,2.8865927E2,2.964255E2,3.3980905E2],"categories":[],"categories_nodes":[],"categories_segments":[],"categories_sizes":[],"default_left":[1,0,1,1,0,0,0,0,0,0,0,0,0,0,0],"id":23,"left_children":[1,3,5,7,9,11,13,-1,-1,-1,-1,-1,-1,-1,-1],"loss_changes":[1.3729383E12,3.1799535E11,2.9428495E11,4.3738202E10,7.772255E10,1.0546997E11,5.2461306E10,0E0,0E0,0E0,0E0,0E0,0E0,0E0,0E0],"parents":[2147483647,0,0,1,1,2,2,3,3,4,4,5,5,6,6],"right_children":[2,4,6,8,10,12,14,-1,-1,-1,-1,-1,-1,-1,-1],"split_conditions":[3.1903E4,2.6924E4,3.9671E4,2.5529E4,8E0,3.3513E4,1.72E2,1.9105394E2,2.1612444E2,2.2532118E2,2.5113075E2,2.5821164E2,2.8865927E2,2.964255E2,3.3980905E2],"split_indices":[0,0,1,1,3,2,8,0,0,0,0,0,0,0,0],"split_type":[0,0,0,0,0,0,0,0,0,0,0,0,0,0,0],"sum_hessian":[1.45351E5,8.1283E4,6.4068E4,2.9364E4,5.1919E4,4.9334E4,1.4734E4,1.774E4,1.1624E4,1.7987E4,3.3932E4,1.8101E4,3.1233E4,3.85E3,1.0884E4],"tree_param":{"num_deleted":"0","num_feature":"9","num_nodes":"15","size_leaf_vector":"1"}},{"base_weights":[2.5205756E4,2.29219E4,2.9266076E4,2.0477549E4,2.4682762E4,2.8098242E4,3.2945098E4,1.9228516E2,2.1971048E2,2.2379507E2,2.53745E2,2.592142E2,2.895713E2,2.901753E2,3.3825293E2],"categories":[],"categories_nodes":[],"categories_segments":[],"categories_sizes":[],"default_left":[1,0,1,1,0,0,0,0,0,0,0,0,0,0,0],"id":24,"left_children":[1,3,5,7,9,11,13,-1,-1,-1,-1,-1,-1,-1,-1],"loss_changes":[1.347202E12,3.999185E11,2.2387098E11,7.225632E10,8.558058E10,7.351566E10,4.2579526E10,0E0,0E0,0E0,0E0,0E0,0E0,0E0,0E0],"parents":[2147483647,0,0,1,1,2,2,3,3,4,4,5,5,6,6],"right_children":[2,4,6,8,10,12,14,-1,-1,-1,-1,-1,-1,-1,-1],"split_conditions":[3.3173E4,2.8266E4,3.9917E4,2.591E4,7E0,3.3021E4,1.58E2,1.9228516E2,2.1971048E2,2.2379507E2,2.53745E2,2.592142E2,2.895713E2,2.901753E2,3.3825293E2],"split_indices":[0,0,2,1,3,2,8,0,0,0,0,0,0,0,0],"split_type":[0,0,0,0,0,0,0,0,0,0,0,0,0,0,0],"sum_hessian":[1.45351E5,9.303E4,5.2321E4,3.896E4,5.407E4,3.9721E4,1.26E4,2.1224E4,1.7736E4,1.2496E4,4.1574E4,1.1247E4,2.8474E4,2.313E3,1.0287E4],"tree_param":{"num_deleted":"0","num_feature":"9","num_nodes":"15","size_leaf_vector":"1"}},{"base_weights":[2.4953713E4,2.2692691E4,2.8973438E4,2.0272783E4,2.4435941E4,2.7863752E4,3.276851E4,1.8500302E2,2.1312717E2,2.241746E2,2.5209654E2,2.7227664E2,3.0857025E2,2.8721844E2,3.3600165E2],"categories":[],"categories_nodes":[],"categories_segments":[],"categories_sizes":[],"default_left":[1,0,1,0,0,0,0,0,0,0,0,0,0,0,0],"id":25,"left_children":[1,3,5,7,9,11,13,-1,-1,-1,-1,-1,-1,-1,-1],"loss_changes":[1.320392E12,3.919577E11,2.194334E11,7.142061E10,8.387769E10,7.625664E10,3.8853935E10,0E0,0E0,0E0,0E0,0E0,0E0,0E0,0E0],"parents":[2147483647,0,0,1,1,2,2,3,3,4,4,5,5,6,6],"right_children":[2,4,6,8,10,12,14,-1,-1,-1,-1,-1,-1,-1,-1],"split_conditions":[3.3173E4,2.8266E4,4.0283E4,2.4322E4,8E0,4.0791E4,1.58E2,1.8500302E2,2.1312717E2,2.241746E2,2.5209654E2,2.7227664E2,3.0857025E2,2.8721844E2,3.3600165E2],"split_indices":[0,0,2,0,3,0,8,0,0,0,0,0,0,0,0],"split_type":[0,0,0,0,0,0,0,0,0,0,0,0,0,0,0],"sum_hessian":[1.45351E5,9.303E4,5.2321E4,3.896E4,5.407E4,4.049E4,1.1831E4,1.4413E4,2.4547E4,1.4991E4,3.9079E4,3.3402E4,7.088E3,2.023E3,9.808E3],"tree_param":{"num_deleted":"0","num_feature":"9","num_nodes":"15","size_leaf_vector":"1"}},{"base_weights":[2.470419E4,2.2053385E4,2.8066865E4,1.9300803E4,2.3398717E4,2.6827607E4,3.1622293E4,1.7705252E2,2.0127531E2,2.1696652E2,2.423548E2,2.5647598E2,2.8482382E2,2.8667456E2,3.27096E2],"categories":[],"categories_nodes":[],"categories_segments":[],"categories_sizes":[],"default_left":[1,0,0,0,0,1,0,0,0,0,0,0,0,0,0],"id":26,"left_children":[1,3,5,7,9,11,13,-1,-1,-1,-1,-1,-1,-1,-1],"loss_changes":[1.2950165E12,3.0055544E11,2.81442E11,3.485152E10,7.722972E10,9.205029E10,5.2248445E10,0E0,0E0,0E0,0E0,0E0,0E0,0E0,0E0],"parents":[2147483647,0,0,1,1,2,2,3,3,4,4,5,5,6,6],"right_children":[2,4,6,8,10,12,14,-1,-1,-1,-1,-1,-1,-1,-1],"split_conditions":[3.1903E4,2.6524E4,3.9637E4,2.3702E4,2.9848E4,3.4954E4,1.72E2,1.7705252E2,2.0127531E2,2.1696652E2,2.423548E2,2.5647598E2,2.8482382E2,2.8667456E2,3.27096E2],"split_indices":[0,0,0,1,2,1,8,0,0,0,0,0,0,0,0],"split_type":[0,0,0,0,0,0,0,0,0,0,0,0,0,0,0],"sum_hessian":[1.45351E5,8.1283E4,6.4068E4,2.669E4,5.4593E4,4.7515E4,1.6553E4,9.117E3,1.7573E4,1.8002E4,3.6591E4,2.7746E4,1.9769E4,4.46E3,1.2093E4],"tree_param":{"num_deleted":"0","num_feature":"9","num_nodes":"15","size_leaf_vector":"1"}},{"base_weights":[2.445716E4,2.2239916E4,2.839906E4,1.986648E4,2.394969E4,2.718853E4,3.178255E4,1.811596E2,2.0895798E2,2.1696124E2,2.462651E2,2.5554836E2,2.837209E2,2.8573575E2,3.2835733E2],"categories":[],"categories_nodes":[],"categories_segments":[],"categories_sizes":[],"default_left":[1,0,1,0,0,0,0,0,0,0,0,0,0,0,0],"id":27,"left_children":[1,3,5,7,9,11,13,-1,-1,-1,-1,-1,-1,-1,-1],"loss_changes":[1.2697668E12,3.7704696E11,2.1343974E11,6.9824676E10,8.194202E10,7.379878E10,4.5637173E10,0E0,0E0,0E0,0E0,0E0,0E0,0E0,0E0],"parents":[2147483647,0,0,1,1,2,2,3,3,4,4,5,5,6,6],"right_children":[2,4,6,8,10,12,14,-1,-1,-1,-1,-1,-1,-1,-1],"split_conditions":[3.3173E4,2.8266E4,3.9851E4,2.5334E4,7E0,3.4827E4,1.72E2,1.811596E2,2.0895798E2,2.1696124E2,2.462651E2,2.5554836E2,2.837209E2,2.8573575E2,3.2835733E2],"split_indices":[0,0,1,2,3,2,8,0,0,0,0,0,0,0,0],"split_type":[0,0,0,0,0,0,0,0,0,0,0,0,0,0,0],"sum_hessian":[1.45351E5,9.303E4,5.2321E4,3.896E4,5.407E4,3.8541E4,1.378E4,1.4433E4,2.4527E4,1.2496E4,4.1574E4,1.6201E4,2.234E4,3.412E3,1.0368E4],"tree_param":{"num_deleted":"0","num_feature":"9","num_nodes":"15","size_leaf_vector":"1"}},{"base_weights":[2.4212604E4,2.161332E4,2.750992E4,1.891221E4,2.2933498E4,2.6377654E4,3.1285398E4,1.7394614E2,1.9764041E2,2.1357109E2,2.3813219E2,2.5238539E2,2.812822E2,2.786319E2,3.221772E2],"categories":[],"categories_nodes":[],"categories_segments":[],"categories_sizes":[],"default_left":[1,0,1,0,0,0,0,0,0,0,0,0,0,0,0],"id":28,"left_children":[1,3,5,7,9,11,13,-1,-1,-1,-1,-1,-1,-1,-1],"loss_changes":[1.245163E12,2.8941956E11,2.7305758E11,3.4160509E10,7.519968E10,9.758677E10,4.6246396E10,0E0,0E0,0E0,0E0,0E0,0E0,0E0,0E0],"parents":[2147483647,0,0,1,1,2,2,3,3,4,4,5,5,6,6],"right_children":[2,4,6,8,10,12,14,-1,-1,-1,-1,-1,-1,-1,-1],"split_conditions":[3.1903E4,2.6524E4,3.9236E4,2.3302E4,8E0,3.6275E4,1.58E2,1.7394614E2,1.9764041E2,2.1357109E2,2.3813219E2,2.5238539E2,2.812822E2,2.786319E2,3.221772E2],"split_indices":[0,0,2,0,3,0,8,0,0,0,0,0,0,0,0],"split_type":[0,0,0,0,0,0,0,0,0,0,0,0,0,0,0],"sum_hessian":[1.45351E5,8.1283E4,6.4068E4,2.669E4,5.4593E4,4.9293E4,1.4775E4,9.603E3,1.7087E4,1.9563E4,3.503E4,2.9871E4,1.9422E4,3.17E3,1.1605E4],"tree_param":{"num_deleted":"0","num_feature":"9","num_nodes":"15","size_leaf_vector":"1"}},{"base_weights":[2.397049E4,2.1796432E4,2.7835613E4,1.9467482E4,2.3474158E4,2.664422E4,3.116562E4,1.8369301E2,2.1059273E2,2.1260359E2,2.4139037E2,2.5036092E2,2.7809265E2,2.8008517E2,3.2201785E2],"categories":[],"categories_nodes":[],"categories_segments":[],"categories_sizes":[],"default_left":[1,0,1,1,0,0,0,0,0,0,0,0,0,0,0],"id":29,"left_children":[1,3,5,7,9,11,13,-1,-1,-1,-1,-1,-1,-1,-1],"loss_changes":[1.2207857E12,3.6305057E11,2.0674983E11,6.7720184E10,7.907102E10,7.151498E10,4.4179653E10,0E0,0E0,0E0,0E0,0E0,0E0,0E0,0E0],"parents":[2147483647,0,0,1,1,2,2,3,3,4,4,5,5,6,6],"right_children":[2,4,6,8,10,12,14,-1,-1,-1,-1,-1,-1,-1,-1],"split_conditions":[3.3173E4,2.8266E4,3.9851E4,2.6342E4,7E0,3.4827E4,1.72E2,1.8369301E2,2.1059273E2,2.1260359E2,2.4139037E2,2.5036092E2,2.7809265E2,2.8008517E2,3.2201785E2],"split_indices":[0,0,1,1,3,2,8,0,0,0,0,0,0,0,0],"split_type":[0,0,0,0,0,0,0,0,0,0,0,0,0,0,0],"sum_hessian":[1.45351E5,9.303E4,5.2321E4,3.896E4,5.407E4,3.8541E4,1.378E4,2.3062E4,1.5898E4,1.2496E4,4.1574E4,1.6201E4,2.234E4,3.412E3,1.0368E4],"tree_param":{"num_deleted":"0","num_feature":"9","num_nodes":"15","size_leaf_vector":"1"}},{"base_weights":[2.3730799E4,2.118204E4,2.6964025E4,1.8532045E4,2.2477234E4,2.5788436E4,3.04919E4,1.689276E2,1.9300934E2,2.0816193E2,2.329384E2,2.466445E2,2.7436618E2,2.7313104E2,3.1446625E2],"categories":[],"categories_nodes":[],"categories_segments":[],"categories_sizes":[],"default_left":[1,0,0,0,0,1,0,0,0,0,0,0,0,0,0],"id":30,"left_children":[1,3,5,7,9,11,13,-1,-1,-1,-1,-1,-1,-1,-1],"loss_changes":[1.1972389E12,2.785731E11,2.6492902E11,3.3315357E10,7.3565995E10,8.8359305E10,4.772384E10,0E0,0E0,0E0,0E0,0E0,0E0,0E0,0E0],"parents":[2147483647,0,0,1,1,2,2,3,3,4,4,5,5,6,6],"right_children":[2,4,6,8,10,12,14,-1,-1,-1,-1,-1,-1,-1,-1],"split_conditions":[3.1903E4,2.6524E4,3.981E4,2.3063E4,2.9848E4,3.5116E4,1.65E2,1.689276E2,1.9300934E2,2.0816193E2,2.329384E2,2.466445E2,2.7436618E2,2.7313104E2,3.1446625E2],"split_indices":[0,0,0,0,2,1,8,0,0,0,0,0,0,0,0],"split_type":[0,0,0,0,0,0,0,0,0,0,0,0,0,0,0],"sum_hessian":[1.45351E5,8.1283E4,6.4068E4,2.669E4,5.4593E4,4.8061E4,1.6007E4,8.529E3,1.8161E4,1.8002E4,3.6591E4,2.8584E4,1.9477E4,3.704E3,1.2303E4],"tree_param":{"num_deleted":"0","num_feature":"9","num_nodes":"15","size_leaf_vector":"1"}},{"base_weights":[2.3493504E4,2.1445459E4,2.7439781E4,1.9077344E4,2.307131E4,2.6425395E4,3.12125E4,1.7373259E2,2.0079369E2,2.1088992E2,2.3811053E2,2.5850635E2,2.956859E2,2.7145105E2,3.193123E2],"categories":[],"categories_nodes":[],"categories_segments":[],"categories_sizes":[],"default_left":[1,0,1,0,0,0,0,0,0,0,0,0,0,0,0],"id":31,"left_children":[1,3,5,7,9,11,13,-1,-1,-1,-1,-1,-1,-1,-1],"loss_changes":[1.1741619E12,3.6800823E11,1.8921764E11,6.6178777E10,8.26949E10,6.994841E10,2.9878125E10,0E0,0E0,0E0,0E0,0E0,0E0,0E0,0E0],"parents":[2147483647,0,0,1,1,2,2,3,3,4,4,5,5,6,6],"right_children":[2,4,6,8,10,12,14,-1,-1,-1,-1,-1,-1,-1,-1],"split_conditions":[3.3491E4,2.8266E4,4.0875E4,2.5334E4,8E0,4.1688E4,1.58E2,1.7373259E2,2.0079369E2,2.1088992E2,2.3811053E2,2.5850635E2,2.956859E2,2.7145105E2,3.193123E2],"split_indices":[0,0,2,2,3,0,8,0,0,0,0,0,0,0,0],"split_type":[0,0,0,0,0,0,0,0,0,0,0,0,0,0,0],"sum_hessian":[1.45351E5,9.5694E4,4.9657E4,3.896E4,5.6734E4,3.9141E4,1.0516E4,1.4433E4,2.4527E4,1.5426E4,4.1308E4,3.3098E4,6.043E3,1.585E3,8.931E3],"tree_param":{"num_deleted":"0","num_feature":"9","num_nodes":"15","size_leaf_vector":"1"}},{"base_weights":[2.3258582E4,2.0664744E4,2.6314023E4,1.8119496E4,2.1933506E4,2.490242E4,2.9205098E4,1.6559274E2,1.889736E2,2.035187E2,2.2754446E2,2.3453667E2,2.60199E2,2.7873352E2,3.1644083E2],"categories":[],"categories_nodes":[],"categories_segments":[],"categories_sizes":[],"default_left":[1,0,0,0,0,0,1,0,0,0,0,0,0,0,0],"id":32,"left_children":[1,3,5,7,9,11,13,-1,-1,-1,-1,-1,-1,-1,-1],"loss_changes":[1.1514203E12,2.5348696E11,2.7161474E11,3.1434736E10,6.7652026E10,7.199523E10,7.021265E10,0E0,0E0,0E0,0E0,0E0,0E0,0E0,0E0],"parents":[2147483647,0,0,1,1,2,2,3,3,4,4,5,5,6,6],"right_children":[2,4,6,8,10,12,14,-1,-1,-1,-1,-1,-1,-1,-1],"split_conditions":[3.1638E4,2.6436E4,3.8171E4,2.3582E4,2.9848E4,3.352E4,4.0875E4,1.6559274E2,1.889736E2,2.035187E2,2.2754446E2,2.3453667E2,2.60199E2,2.7873352E2,3.1644083E2],"split_indices":[0,0,0,1,2,1,2,0,0,0,0,0,0,0,0],"split_type":[0,0,0,0,0,0,0,0,0,0,0,0,0,0,0],"sum_hessian":[1.45351E5,7.8618E4,6.6733E4,2.6158E4,5.246E4,4.4846E4,2.1887E4,8.71E3,1.7448E4,1.7934E4,3.4526E4,1.9538E4,2.5308E4,1.4165E4,7.722E3],"tree_param":{"num_deleted":"0","num_feature":"9","num_nodes":"15","size_leaf_vector":"1"}},{"base_weights":[2.302601E4,2.1017502E4,2.6896104E4,1.8747596E4,2.2649438E4,2.5900334E4,3.0599588E4,1.764531E2,2.0277924E2,2.040201E2,2.3294612E2,2.5334587E2,2.8994266E2,2.6590338E2,3.130806E2],"categories":[],"categories_nodes":[],"categories_segments":[],"categories_sizes":[],"default_left":[1,0,1,1,0,0,0,0,0,0,0,0,0,0,0],"id":33,"left_children":[1,3,5,7,9,11,13,-1,-1,-1,-1,-1,-1,-1,-1],"loss_changes":[1.129266E12,3.5406217E11,1.8233898E11,6.7166536E10,8.024123E10,6.7779953E10,2.9040312E10,0E0,0E0,0E0,0E0,0E0,0E0,0E0,0E0],"parents":[2147483647,0,0,1,1,2,2,3,3,4,4,5,5,6,6],"right_children":[2,4,6,8,10,12,14,-1,-1,-1,-1,-1,-1,-1,-1],"split_conditions":[3.3491E4,2.8411E4,4.0875E4,2.6342E4,7E0,4.1688E4,1.58E2,1.764531E2,2.0277924E2,2.040201E2,2.3294612E2,2.5334587E2,2.8994266E2,2.6590338E2,3.130806E2],"split_indices":[0,0,2,1,3,0,8,0,0,0,0,0,0,0,0],"split_type":[0,0,0,0,0,0,0,0,0,0,0,0,0,0,0],"sum_hessian":[1.45351E5,9.5694E4,4.9657E4,4.0029E4,5.5665E4,3.9141E4,1.0516E4,2.3276E4,1.6753E4,1.2423E4,4.3242E4,3.3098E4,6.043E3,1.585E3,8.931E3],"tree_param":{"num_deleted":"0","num_feature":"9","num_nodes":"15","size_leaf_vector":"1"}},{"base_weights":[2.2795764E4,1.9540994E4,2.5139559E4,1.7557371E4,2.0786951E4,2.3724299E4,2.820248E4,1.6188985E2,1.8336694E2,1.9619147E2,2.1691919E2,2.0151494E2,2.4353185E2,2.696287E2,3.0832446E2],"categories":[],"categories_nodes":[],"categories_segments":[],"categories_sizes":[],"default_left":[0,0,1,0,0,0,1,0,0,0,0,0,0,0,0],"id":34,"left_children":[1,3,5,7,9,11,13,-1,-1,-1,-1,-1,-1,-1,-1],"loss_changes":[1.108328E12,1.5003864E11,3.656133E11,2.4747442E10,3.907099E10,1.293775E11,8.621182E10,0E0,0E0,0E0,0E0,0E0,0E0,0E0,0E0],"parents":[2147483647,0,0,1,1,2,2,3,3,4,4,5,5,6,6],"right_children":[2,4,6,8,10,12,14,-1,-1,-1,-1,-1,-1,-1,-1],"split_conditions":[3.0764E4,2.6023E4,3.7101E4,2.3063E4,2.9397E4,7E0,4.0875E4,1.6188985E2,1.8336694E2,1.9619147E2,2.1691919E2,2.0151494E2,2.4353185E2,2.696287E2,3.0832446E2],"split_indices":[0,0,0,0,2,3,2,0,0,0,0,0,0,0,0],"split_type":[0,0,0,0,0,0,0,0,0,0,0,0,0,0,0],"sum_hessian":[1.45351E5,6.0854E4,8.4497E4,2.3483E4,3.7371E4,5.7799E4,2.6698E4,8.529E3,1.4954E4,1.6326E4,2.1045E4,8.656E3,4.9143E4,1.8153E4,8.545E3],"tree_param":{"num_deleted":"0","num_feature":"9","num_nodes":"15","size_leaf_vector":"1"}},{"base_weights":[2.2567818E4,2.043359E4,2.6074402E4,1.8012117E4,2.1832594E4,2.4951107E4,2.9389762E4,1.6504945E2,1.8964783E2,2.0110597E2,2.2589545E2,2.2974176E2,2.5853912E2,2.6376913E2,3.038585E2],"categories":[],"categories_nodes":[],"categories_segments":[],"categories_sizes":[],"default_left":[1,0,1,0,0,0,0,0,0,0,0,0,0,0,0],"id":35,"left_children":[1,3,5,7,9,11,13,-1,-1,-1,-1,-1,-1,-1,-1],"loss_changes":[1.0872559E12,3.0572282E11,2.0406128E11,4.7205843E10,7.419095E10,7.2727134E10,4.0946893E10,0E0,0E0,0E0,0E0,0E0,0E0,0E0,0E0],"parents":[2147483647,0,0,1,1,2,2,3,3,4,4,5,5,6,6],"right_children":[2,4,6,8,10,12,14,-1,-1,-1,-1,-1,-1,-1,-1],"split_conditions":[3.2853E4,2.7474E4,3.9851E4,2.5031E4,8E0,3.3389E4,1.72E2,1.6504945E2,1.8964783E2,2.0110597E2,2.2589545E2,2.2974176E2,2.5853912E2,2.6376913E2,3.038585E2],"split_indices":[0,0,1,2,3,2,8,0,0,0,0,0,0,0,0],"split_type":[0,0,0,0,0,0,0,0,0,0,0,0,0,0,0],"sum_hessian":[1.45351E5,9.0361E4,5.499E4,3.3094E4,5.7267E4,4.108E4,1.391E4,1.2824E4,2.027E4,1.7495E4,3.9772E4,1.2887E4,2.8193E4,3.463E3,1.0447E4],"tree_param":{"num_deleted":"0","num_feature":"9","num_nodes":"15","size_leaf_vector":"1"}},{"base_weights":[2.2342152E4,1.9148867E4,2.4641674E4,1.7010115E4,2.0261014E4,2.3251674E4,2.7649928E4,1.571617E2,1.7732394E2,1.899391E2,2.1120326E2,1.973672E2,2.387038E2,2.6430212E2,3.0237695E2],"categories":[],"categories_nodes":[],"categories_segments":[],"categories_sizes":[],"default_left":[0,0,1,0,0,0,1,0,0,0,0,0,0,0,0],"id":36,"left_children":[1,3,5,7,9,11,13,-1,-1,-1,-1,-1,-1,-1,-1],"loss_changes":[1.0668548E12,1.444036E11,3.5267805E11,1.9183698E10,4.3185603E10,1.2522514E11,8.347294E10,0E0,0E0,0E0,0E0,0E0,0E0,0E0,0E0],"parents":[2147483647,0,0,1,1,2,2,3,3,4,4,5,5,6,6],"right_children":[2,4,6,8,10,12,14,-1,-1,-1,-1,-1,-1,-1,-1],"split_conditions":[3.0764E4,2.5567E4,3.7101E4,2.2804E4,2.8925E4,7E0,4.0875E4,1.571617E2,1.7732394E2,1.899391E2,2.1120326E2,1.973672E2,2.387038E2,2.6430212E2,3.0237695E2],"split_indices":[0,0,0,0,2,3,2,0,0,0,0,0,0,0,0],"split_type":[0,0,0,0,0,0,0,0,0,0,0,0,0,0,0],"sum_hessian":[1.45351E5,6.0854E4,8.4497E4,2.0824E4,4.003E4,5.7799E4,2.6698E4,7.468E3,1.3356E4,1.6186E4,2.3844E4,8.656E3,4.9143E4,1.8153E4,8.545E3],"tree_param":{"num_deleted":"0","num_feature":"9","num_nodes":"15","size_leaf_vector":"1"}},{"base_weights":[2.2118742E4,2.0184775E4,2.5845207E4,1.8002459E4,2.1753738E4,2.4820873E4,2.9249584E4,1.6931216E2,1.9489703E2,1.9840889E2,2.2456314E2,2.338534E2,2.605694E2,2.601476E2,3.011982E2],"categories":[],"categories_nodes":[],"categories_segments":[],"categories_sizes":[],"default_left":[1,0,1,1,0,0,0,0,0,0,0,0,0,0,0],"id":37,"left_children":[1,3,5,7,9,11,13,-1,-1,-1,-1,-1,-1,-1,-1],"loss_changes":[1.0470073E12,3.2726476E11,1.7244252E11,6.344619E10,7.436501E10,6.7136127E10,3.1533826E10,0E0,0E0,0E0,0E0,0E0,0E0,0E0,0E0],"parents":[2147483647,0,0,1,1,2,2,3,3,4,4,5,5,6,6],"right_children":[2,4,6,8,10,12,14,-1,-1,-1,-1,-1,-1,-1,-1],"split_conditions":[3.3491E4,2.8411E4,4.081E4,2.6342E4,8E0,3.5707E4,1.72E2,1.6931216E2,1.9489703E2,1.9840889E2,2.2456314E2,2.338534E2,2.605694E2,2.601476E2,3.011982E2],"split_indices":[0,0,1,1,3,2,8,0,0,0,0,0,0,0,0],"split_type":[0,0,0,0,0,0,0,0,0,0,0,0,0,0,0],"sum_hessian":[1.45351E5,9.5694E4,4.9657E4,4.0029E4,5.5665E4,3.8178E4,1.1479E4,2.3276E4,1.6753E4,1.4961E4,4.0704E4,1.7673E4,2.0505E4,2.44E3,9.039E3],"tree_param":{"num_deleted":"0","num_feature":"9","num_nodes":"15","size_leaf_vector":"1"}},{"base_weights":[2.1897566E4,1.9374309E4,2.469866E4,1.7046207E4,2.0584314E4,2.342364E4,2.76379E4,1.5539674E2,1.779733E2,1.9194623E2,2.142261E2,2.1920453E2,2.4493481E2,2.6289047E2,2.9980792E2],"categories":[],"categories_nodes":[],"categories_segments":[],"categories_sizes":[],"default_left":[1,0,1,0,0,0,1,0,0,0,0,0,0,0,0],"id":38,"left_children":[1,3,5,7,9,11,13,-1,-1,-1,-1,-1,-1,-1,-1],"loss_changes":[1.0268579E12,2.1507342E11,2.5748413E11,2.9325E10,5.8204357E10,7.67285E10,6.5051558E10,0E0,0E0,0E0,0E0,0E0,0E0,0E0,0E0],"parents":[2147483647,0,0,1,1,2,2,3,3,4,4,5,5,6,6],"right_children":[2,4,6,8,10,12,14,-1,-1,-1,-1,-1,-1,-1,-1],"split_conditions":[3.1432E4,2.6436E4,3.7858E4,2.3582E4,8E0,3.3513E4,4.1296E4,1.5539674E2,1.779733E2,1.9194623E2,2.142261E2,2.1920453E2,2.4493481E2,2.6289047E2,2.9980792E2],"split_indices":[0,0,1,1,3,2,2,0,0,0,0,0,0,0,0],"split_type":[0,0,0,0,0,0,0,0,0,0,0,0,0,0,0],"sum_hessian":[1.45351E5,7.6472E4,6.8879E4,2.6158E4,5.0314E4,4.8046E4,2.0833E4,8.71E3,1.7448E4,1.894E4,3.1374E4,1.9986E4,2.806E4,1.3229E4,7.604E3],"tree_param":{"num_deleted":"0","num_feature":"9","num_nodes":"15","size_leaf_vector":"1"}},{"base_weights":[2.1678604E4,1.978117E4,2.5334676E4,1.7735549E4,2.1392494E4,2.4329166E4,2.867649E4,1.6062604E2,1.8699376E2,1.9197087E2,2.200275E2,2.2918918E2,2.5543465E2,2.5483105E2,2.9535602E2],"categories":[],"categories_nodes":[],"categories_segments":[],"categories_sizes":[],"default_left":[1,0,1,0,0,0,0,0,0,0,0,0,0,0,0],"id":39,"left_children":[1,3,5,7,9,11,13,-1,-1,-1,-1,-1,-1,-1,-1],"loss_changes":[1.00782834E12,3.1504676E11,1.6616364E11,6.7698164E10,7.128639E10,6.4795705E10,3.07432E10,0E0,0E0,0E0,0E0,0E0,0E0,0E0,0E0],"parents":[2147483647,0,0,1,1,2,2,3,3,4,4,5,5,6,6],"right_children":[2,4,6,8,10,12,14,-1,-1,-1,-1,-1,-1,-1,-1],"split_conditions":[3.3491E4,2.8682E4,4.081E4,2.5544E4,7E0,3.5707E4,1.72E2,1.6062604E2,1.8699376E2,1.9197087E2,2.200275E2,2.2918918E2,2.5543465E2,2.5483105E2,2.9535602E2],"split_indices":[0,0,1,2,3,2,8,0,0,0,0,0,0,0,0],"split_type":[0,0,0,0,0,0,0,0,0,0,0,0,0,0,0],"sum_hessian":[1.45351E5,9.5694E4,4.9657E4,4.217E4,5.3524E4,3.8178E4,1.1479E4,1.5421E4,2.6749E4,1.1649E4,4.1875E4,1.7673E4,2.0505E4,2.44E3,9.039E3],"tree_param":{"num_deleted":"0","num_feature":"9","num_nodes":"15","size_leaf_vector":"1"}},{"base_weights":[2.146183E4,1.8386957E4,2.3676082E4,1.6324392E4,1.945949E4,2.229288E4,2.6502828E4,1.5056541E2,1.7032129E2,1.822869E2,2.0294193E2,1.8905205E2,2.2897821E2,2.5335835E2,2.9057443E2],"categories":[],"categories_nodes":[],"categories_segments":[],"categories_sizes":[],"default_left":[0,0,1,0,0,0,1,0,0,0,0,0,0,0,0],"id":40,"left_children":[1,3,5,7,9,11,13,-1,-1,-1,-1,-1,-1,-1,-1],"loss_changes":[9.8919724E11,1.3430581E11,3.2979393E11,1.8429772E10,4.0755003E10,1.1585297E11,8.201332E10,0E0,0E0,0E0,0E0,0E0,0E0,0E0,0E0],"parents":[2147483647,0,0,1,1,2,2,3,3,4,4,5,5,6,6],"right_children":[2,4,6,8,10,12,14,-1,-1,-1,-1,-1,-1,-1,-1],"split_conditions":[3.0764E4,2.5567E4,3.6884E4,2.2804E4,2.8925E4,7E0,4.0875E4,1.5056541E2,1.7032129E2,1.822869E2,2.0294193E2,1.8905205E2,2.2897821E2,2.5335835E2,2.9057443E2],"split_indices":[0,0,0,0,2,3,2,0,0,0,0,0,0,0,0],"split_type":[0,0,0,0,0,0,0,0,0,0,0,0,0,0,0],"sum_hessian":[1.45351E5,6.0854E4,8.4497E4,2.0824E4,4.003E4,5.6741E4,2.7756E4,7.468E3,1.3356E4,1.6186E4,2.3844E4,8.602E3,4.8139E4,1.906E4,8.696E3],"tree_param":{"num_deleted":"0","num_feature":"9","num_nodes":"15","size_leaf_vector":"1"}},{"base_weights":[2.1247223E4,1.938582E4,2.483387E4,1.7380516E4,2.0965387E4,2.3844014E4,2.8123662E4,1.5735892E2,1.8328029E2,1.9062971E2,2.1642342E2,2.2455693E2,2.5039436E2,2.497698E2,2.8970227E2],"categories":[],"categories_nodes":[],"categories_segments":[],"categories_sizes":[],"default_left":[1,0,1,0,0,0,0,0,0,0,0,0,0,0,0],"id":41,"left_children":[1,3,5,7,9,11,13,-1,-1,-1,-1,-1,-1,-1,-1],"loss_changes":[9.69916E11,3.0274906E11,1.610361E11,6.542695E10,6.8520247E10,6.2799217E10,2.9858202E10,0E0,0E0,0E0,0E0,0E0,0E0,0E0,0E0],"parents":[2147483647,0,0,1,1,2,2,3,3,4,4,5,5,6,6],"right_children":[2,4,6,8,10,12,14,-1,-1,-1,-1,-1,-1,-1,-1],"split_conditions":[3.3491E4,2.8682E4,4.081E4,2.5544E4,8E0,3.5707E4,1.72E2,1.5735892E2,1.8328029E2,1.9062971E2,2.1642342E2,2.2455693E2,2.5039436E2,2.497698E2,2.8970227E2],"split_indices":[0,0,1,2,3,2,8,0,0,0,0,0,0,0,0],"split_type":[0,0,0,0,0,0,0,0,0,0,0,0,0,0,0],"sum_hessian":[1.45351E5,9.5694E4,4.9657E4,4.217E4,5.3524E4,3.8178E4,1.1479E4,1.5421E4,2.6749E4,1.4055E4,3.9469E4,1.7673E4,2.0505E4,2.44E3,9.039E3],"tree_param":{"num_deleted":"0","num_feature":"9","num_nodes":"15","size_leaf_vector":"1"}},{"base_weights":[2.1034764E4,1.801882E4,2.320658E4,1.5992671E4,1.9072416E4,2.1886488E4,2.6063543E4,1.4741612E2,1.6691043E2,1.7683078E2,1.9786469E2,1.8527011E2,2.2477834E2,2.490333E2,2.8525095E2],"categories":[],"categories_nodes":[],"categories_segments":[],"categories_sizes":[],"default_left":[0,0,1,0,0,0,1,0,0,0,0,0,0,0,0],"id":42,"left_children":[1,3,5,7,9,11,13,-1,-1,-1,-1,-1,-1,-1,-1],"loss_changes":[9.5164563E11,1.2960399E11,3.181128E11,1.7948475E10,3.936459E10,1.1441013E11,7.5539415E10,0E0,0E0,0E0,0E0,0E0,0E0,0E0,0E0],"parents":[2147483647,0,0,1,1,2,2,3,3,4,4,5,5,6,6],"right_children":[2,4,6,8,10,12,14,-1,-1,-1,-1,-1,-1,-1,-1],"split_conditions":[3.0764E4,2.5567E4,3.7101E4,2.2804E4,2.8271E4,7E0,4.0875E4,1.4741612E2,1.6691043E2,1.7683078E2,1.9786469E2,1.8527011E2,2.2477834E2,2.490333E2,2.8525095E2],"split_indices":[0,0,0,0,2,3,2,0,0,0,0,0,0,0,0],"split_type":[0,0,0,0,0,0,0,0,0,0,0,0,0,0,0],"sum_hessian":[1.45351E5,6.0854E4,8.4497E4,2.0824E4,4.003E4,5.7799E4,2.6698E4,7.468E3,1.3356E4,1.3598E4,2.6432E4,8.656E3,4.9143E4,1.8153E4,8.545E3],"tree_param":{"num_deleted":"0","num_feature":"9","num_nodes":"15","size_leaf_vector":"1"}},{"base_weights":[2.0824426E4,1.870513E4,2.3857086E4,1.6520396E4,1.9977402E4,2.2817959E4,2.7077822E4,1.5572032E2,1.7828748E2,1.847485E2,2.0699934E2,2.0900125E2,2.3664294E2,2.428211E2,2.8052417E2],"categories":[],"categories_nodes":[],"categories_segments":[],"categories_sizes":[],"default_left":[1,0,1,1,0,0,0,0,0,0,0,0,0,0,0],"id":43,"left_children":[1,3,5,7,9,11,13,-1,-1,-1,-1,-1,-1,-1,-1],"loss_changes":[9.3374435E11,2.3750456E11,1.994769E11,3.8802555E10,5.83197E10,7.288652E10,3.904163E10,0E0,0E0,0E0,0E0,0E0,0E0,0E0,0E0],"parents":[2147483647,0,0,1,1,2,2,3,3,4,4,5,5,6,6],"right_children":[2,4,6,8,10,12,14,-1,-1,-1,-1,-1,-1,-1,-1],"split_conditions":[3.2327E4,2.7232E4,3.9671E4,2.5529E4,8E0,3.3021E4,1.72E2,1.5572032E2,1.7828748E2,1.847485E2,2.0699934E2,2.0900125E2,2.3664294E2,2.428211E2,2.8052417E2],"split_indices":[0,0,1,1,3,2,8,0,0,0,0,0,0,0,0],"split_type":[0,0,0,0,0,0,0,0,0,0,0,0,0,0,0],"sum_hessian":[1.45351E5,8.5564E4,5.9787E4,3.1495E4,5.4069E4,4.5209E4,1.4578E4,1.8267E4,1.3228E4,1.7566E4,3.6503E4,1.385E4,3.1359E4,3.775E3,1.0803E4],"tree_param":{"num_deleted":"0","num_feature":"9","num_nodes":"15","size_leaf_vector":"1"}},{"base_weights":[2.0616193E4,1.889472E4,2.4281635E4,1.688134E4,2.042441E4,2.334577E4,2.7552596E4,1.580785E2,1.8282248E2,1.8254573E2,2.1003888E2,2.2789684E2,2.6109177E2,2.3756264E2,2.8206116E2],"categories":[],"categories_nodes":[],"categories_segments":[],"categories_sizes":[],"default_left":[1,0,1,1,0,0,0,0,0,0,0,0,0,0,0],"id":44,"left_children":[1,3,5,7,9,11,13,-1,-1,-1,-1,-1,-1,-1,-1],"loss_changes":[9.167071E11,3.042716E11,1.4153469E11,6.393692E10,7.027976E10,5.490973E10,2.495139E10,0E0,0E0,0E0,0E0,0E0,0E0,0E0,0E0],"parents":[2147483647,0,0,1,1,2,2,3,3,4,4,5,5,6,6],"right_children":[2,4,6,8,10,12,14,-1,-1,-1,-1,-1,-1,-1,-1],"split_conditions":[3.3913E4,2.8747E4,4.0875E4,2.6417E4,7E0,4.1688E4,1.58E2,1.580785E2,1.8282248E2,1.8254573E2,2.1003888E2,2.2789684E2,2.6109177E2,2.3756264E2,2.8206116E2],"split_indices":[0,0,2,1,3,0,8,0,0,0,0,0,0,0,0],"split_type":[0,0,0,0,0,0,0,0,0,0,0,0,0,0,0],"sum_hessian":[1.45351E5,9.8906E4,4.6445E4,4.2707E4,5.6199E4,3.6119E4,1.0326E4,2.4186E4,1.8521E4,1.1852E4,4.4347E4,3.0076E4,6.043E3,1.522E3,8.804E3],"tree_param":{"num_deleted":"0","num_feature":"9","num_nodes":"15","size_leaf_vector":"1"}},{"base_weights":[2.0410045E4,1.7317771E4,2.2411621E4,1.5387912E4,1.8295607E4,2.1120541E4,2.5223867E4,1.4484431E2,1.6271747E2,1.7044724E2,1.9035805E2,1.8030186E2,2.16897E2,2.4320801E2,2.8263818E2],"categories":[],"categories_nodes":[],"categories_segments":[],"categories_sizes":[],"default_left":[0,0,1,1,0,0,1,0,0,0,0,0,0,0,0],"id":45,"left_children":[1,3,5,7,9,11,13,-1,-1,-1,-1,-1,-1,-1,-1],"loss_changes":[8.992546E11,1.075063E11,3.1983246E11,1.5108407E10,3.4772877E10,1.0598377E11,7.551215E10,0E0,0E0,0E0,0E0,0E0,0E0,0E0,0E0],"parents":[2147483647,0,0,1,1,2,2,3,3,4,4,5,5,6,6],"right_children":[2,4,6,8,10,12,14,-1,-1,-1,-1,-1,-1,-1,-1],"split_conditions":[3.0377E4,2.5264E4,3.6884E4,2.3582E4,2.8271E4,7E0,4.2866E4,1.4484431E2,1.6271747E2,1.7044724E2,1.9035805E2,1.8030186E2,2.16897E2,2.4320801E2,2.8263818E2],"split_indices":[0,0,0,1,2,3,2,0,0,0,0,0,0,0,0],"split_type":[0,0,0,0,0,0,0,0,0,0,0,0,0,0,0],"sum_hessian":[1.45351E5,5.7118E4,8.8233E4,1.9214E4,3.7904E4,6.0477E4,2.7756E4,9.51E3,9.704E3,1.41E4,2.3804E4,9.411E3,5.1066E4,2.1406E4,6.35E3],"tree_param":{"num_deleted":"0","num_feature":"9","num_nodes":"15","size_leaf_vector":"1"}},{"base_weights":[2.0205955E4,1.8517012E4,2.3802133E4,1.6543785E4,2.0016193E4,2.2828549E4,2.683425E4,1.4875443E2,1.7420155E2,1.8137947E2,2.065883E2,2.1459831E2,2.3939372E2,2.3742157E2,2.7646338E2],"categories":[],"categories_nodes":[],"categories_segments":[],"categories_sizes":[],"default_left":[1,0,1,0,0,0,0,0,0,0,0,0,0,0,0],"id":46,"left_children":[1,3,5,7,9,11,13,-1,-1,-1,-1,-1,-1,-1,-1],"loss_changes":[8.823893E11,2.922591E11,1.36495235E11,6.2183703E10,6.745909E10,5.295099E10,2.767559E10,0E0,0E0,0E0,0E0,0E0,0E0,0E0,0E0],"parents":[2147483647,0,0,1,1,2,2,3,3,4,4,5,5,6,6],"right_children":[2,4,6,8,10,12,14,-1,-1,-1,-1,-1,-1,-1,-1],"split_conditions":[3.3913E4,2.8747E4,4.081E4,2.5334E4,8E0,3.5707E4,1.72E2,1.4875443E2,1.7420155E2,1.8137947E2,2.065883E2,2.1459831E2,2.3939372E2,2.3742157E2,2.7646338E2],"split_indices":[0,0,1,2,3,2,8,0,0,0,0,0,0,0,0],"split_type":[0,0,0,0,0,0,0,0,0,0,0,0,0,0,0],"sum_hessian":[1.45351E5,9.8906E4,4.6445E4,4.2707E4,5.6199E4,3.5163E4,1.1282E4,1.4714E4,2.7993E4,1.4334E4,4.1865E4,1.5762E4,1.9401E4,2.353E3,8.929E3],"tree_param":{"num_deleted":"0","num_feature":"9","num_nodes":"15","size_leaf_vector":"1"}},{"base_weights":[2.0003906E4,1.7127943E4,2.2074922E4,1.5191698E4,1.8134793E4,2.0845748E4,2.487813E4,1.3969986E2,1.587372E2,1.7034067E2,1.8970927E2,1.7569496E2,2.1425562E2,2.3669612E2,2.7170856E2],"categories":[],"categories_nodes":[],"categories_segments":[],"categories_sizes":[],"default_left":[0,0,1,0,0,0,1,0,0,0,0,0,0,0,0],"id":47,"left_children":[1,3,5,7,9,11,13,-1,-1,-1,-1,-1,-1,-1,-1],"loss_changes":[8.653604E11,1.1836326E11,2.9062752E11,1.7130062E10,3.6519805E10,1.1122246E11,7.071177E10,0E0,0E0,0E0,0E0,0E0,0E0,0E0,0E0],"parents":[2147483647,0,0,1,1,2,2,3,3,4,4,5,5,6,6],"right_children":[2,4,6,8,10,12,14,-1,-1,-1,-1,-1,-1,-1,-1],"split_conditions":[3.0764E4,2.5567E4,3.6744E4,2.2804E4,2.9201E4,7E0,4.0875E4,1.3969986E2,1.587372E2,1.7034067E2,1.8970927E2,1.7569496E2,2.1425562E2,2.3669612E2,2.7170856E2],"split_indices":[0,0,1,0,2,3,2,0,0,0,0,0,0,0,0],"split_type":[0,0,0,0,0,0,0,0,0,0,0,0,0,0,0],"sum_hessian":[1.45351E5,6.0854E4,8.4497E4,2.0824E4,4.003E4,5.8746E4,2.5751E4,7.468E3,1.3356E4,1.729E4,2.274E4,8.838E3,4.9908E4,1.687E4,8.881E3],"tree_param":{"num_deleted":"0","num_feature":"9","num_nodes":"15","size_leaf_vector":"1"}},{"base_weights":[1.9803879E4,1.8145672E4,2.3334611E4,1.6212677E4,1.9614287E4,2.2430217E4,2.6495582E4,1.5168034E2,1.757595E2,1.753121E2,2.0170593E2,2.1886453E2,2.5132465E2,2.2786316E2,2.7134164E2],"categories":[],"categories_nodes":[],"categories_segments":[],"categories_sizes":[],"default_left":[1,0,1,1,0,0,0,0,0,0,0,0,0,0,0],"id":48,"left_children":[1,3,5,7,9,11,13,-1,-1,-1,-1,-1,-1,-1,-1],"loss_changes":[8.505671E11,2.8046472E11,1.3218559E11,6.0556313E10,6.4772637E10,5.252527E10,2.3843045E10,0E0,0E0,0E0,0E0,0E0,0E0,0E0,0E0],"parents":[2147483647,0,0,1,1,2,2,3,3,4,4,5,5,6,6],"right_children":[2,4,6,8,10,12,14,-1,-1,-1,-1,-1,-1,-1,-1],"split_conditions":[3.3913E4,2.8747E4,4.0875E4,2.6417E4,7E0,4.1688E4,1.58E2,1.5168034E2,1.757595E2,1.753121E2,2.0170593E2,2.1886453E2,2.5132465E2,2.2786316E2,2.7134164E2],"split_indices":[0,0,2,1,3,0,8,0,0,0,0,0,0,0,0],"split_type":[0,0,0,0,0,0,0,0,0,0,0,0,0,0,0],"sum_hessian":[1.45351E5,9.8906E4,4.6445E4,4.2707E4,5.6199E4,3.6119E4,1.0326E4,2.4186E4,1.8521E4,1.1852E4,4.4347E4,3.0076E4,6.043E3,1.522E3,8.804E3],"tree_param":{"num_deleted":"0","num_feature":"9","num_nodes":"15","size_leaf_vector":"1"}},{"base_weights":[1.9605852E4,1.7809258E4,2.2799902E4,1.5753201E4,1.9092668E4,2.1776506E4,2.5660434E4,1.4252379E2,1.6586871E2,1.7683617E2,1.9816222E2,1.9787207E2,2.2519208E2,2.290555E2,2.656474E2],"categories":[],"categories_nodes":[],"categories_segments":[],"categories_sizes":[],"default_left":[1,0,1,0,0,0,0,0,0,0,0,0,0,0,0],"id":49,"left_children":[1,3,5,7,9,11,13,-1,-1,-1,-1,-1,-1,-1,-1],"loss_changes":[8.3368083E11,2.4518853E11,1.5260975E11,4.450471E10,5.804078E10,5.649937E10,3.3724301E10,0E0,0E0,0E0,0E0,0E0,0E0,0E0,0E0],"parents":[2147483647,0,0,1,1,2,2,3,3,4,4,5,5,6,6],"right_children":[2,4,6,8,10,12,14,-1,-1,-1,-1,-1,-1,-1,-1],"split_conditions":[3.3173E4,2.7842E4,3.9851E4,2.4923E4,9E0,3.3021E4,1.72E2,1.4252379E2,1.6586871E2,1.7683617E2,1.9816222E2,1.9787207E2,2.2519208E2,2.290555E2,2.656474E2],"split_indices":[0,0,1,2,3,2,8,0,0,0,0,0,0,0,0],"split_type":[0,0,0,0,0,0,0,0,0,0,0,0,0,0,0],"sum_hessian":[1.45351E5,9.303E4,5.2321E4,3.5758E4,5.7272E4,3.8541E4,1.378E4,1.2776E4,2.2982E4,1.944E4,3.7832E4,1.0485E4,2.8056E4,3.412E3,1.0368E4],"tree_param":{"num_deleted":"0","num_feature":"9","num_nodes":"15","size_leaf_vector":"1"}},{"base_weights":[1.9409803E4,1.778388E4,2.2871795E4,1.5888148E4,1.9224188E4,2.1860121E4,2.5611727E4,1.4860104E2,1.7229764E2,1.7415182E2,1.9843135E2,1.957823E2,2.2451082E2,2.2891563E2,2.6522293E2],"categories":[],"categories_nodes":[],"categories_segments":[],"categories_sizes":[],"default_left":[1,0,1,1,0,0,0,0,0,0,0,0,0,0,0],"id":50,"left_children":[1,3,5,7,9,11,13,-1,-1,-1,-1,-1,-1,-1,-1],"loss_changes":[8.1777184E11,2.6975247E11,1.2818632E11,5.8648953E10,6.2581113E10,4.5313163E10,3.040084E10,0E0,0E0,0E0,0E0,0E0,0E0,0E0,0E0],"parents":[2147483647,0,0,1,1,2,2,3,3,4,4,5,5,6,6],"right_children":[2,4,6,8,10,12,14,-1,-1,-1,-1,-1,-1,-1,-1],"split_conditions":[3.3913E4,2.8747E4,3.9742E4,2.6417E4,8E0,3.2334E4,1.72E2,1.4860104E2,1.7229764E2,1.7415182E2,1.9843135E2,1.957823E2,2.2451082E2,2.2891563E2,2.6522293E2],"split_indices":[0,0,2,1,3,2,8,0,0,0,0,0,0,0,0],"split_type":[0,0,0,0,0,0,0,0,0,0,0,0,0,0,0],"sum_hessian":[1.45351E5,9.8906E4,4.6445E4,4.2707E4,5.6199E4,3.3927E4,1.2518E4,2.4186E4,1.8521E4,1.4334E4,4.1865E4,6.986E3,2.6941E4,3.146E3,9.372E3],"tree_param":{"num_deleted":"0","num_feature":"9","num_nodes":"15","size_leaf_vector":"1"}},{"base_weights":[1.9215717E4,1.6445967E4,2.1210246E4,1.45758955E4,1.7418408E4,2.01107E4,2.4157463E4,1.3376494E2,1.5245488E2,1.6349432E2,1.8230434E2,1.7286423E2,2.0730315E2,2.3082019E2,2.6384906E2],"categories":[],"categories_nodes":[],"categories_segments":[],"categories_sizes":[],"default_left":[0,0,1,0,0,0,0,0,0,0,0,0,0,0,0],"id":51,"left_children":[1,3,5,7,9,11,13,-1,-1,-1,-1,-1,-1,-1,-1],"loss_changes":[8.026304E11,1.10412956E11,2.733386E11,1.6521363E10,3.4449916E10,1.0734063E11,5.4377054E10,0E0,0E0,0E0,0E0,0E0,0E0,0E0,0E0],"parents":[2147483647,0,0,1,1,2,2,3,3,4,4,5,5,6,6],"right_children":[2,4,6,8,10,12,14,-1,-1,-1,-1,-1,-1,-1,-1],"split_conditions":[3.0764E4,2.5567E4,3.7924E4,2.2804E4,2.9201E4,8E0,4.3846E4,1.3376494E2,1.5245488E2,1.6349432E2,1.8230434E2,1.7286423E2,2.0730315E2,2.3082019E2,2.6384906E2],"split_indices":[0,0,0,0,2,3,0,0,0,0,0,0,0,0,0],"split_type":[0,0,0,0,0,0,0,0,0,0,0,0,0,0,0],"sum_hessian":[1.45351E5,6.0854E4,8.4497E4,2.0824E4,4.003E4,6.1544E4,2.2953E4,7.468E3,1.3356E4,1.729E4,2.274E4,1.1078E4,5.0466E4,1.5487E4,7.466E3],"tree_param":{"num_deleted":"0","num_feature":"9","num_nodes":"15","size_leaf_vector":"1"}},{"base_weights":[1.902357E4,1.6956156E4,2.164619E4,1.4974594E4,1.810685E4,2.0528662E4,2.4339873E4,1.3590123E2,1.5800035E2,1.6500677E2,1.8795808E2,1.8947748E2,2.1403372E2,2.327631E2,2.6573532E2],"categories":[],"categories_nodes":[],"categories_segments":[],"categories_sizes":[],"default_left":[1,0,1,0,0,0,0,0,0,0,0,0,0,0,0],"id":52,"left_children":[1,3,5,7,9,11,13,-1,-1,-1,-1,-1,-1,-1,-1],"loss_changes":[7.877364E11,1.8506947E11,1.9236756E11,3.3916715E10,5.65885E10,6.2220403E10,4.3999298E10,0E0,0E0,0E0,0E0,0E0,0E0,0E0,0E0],"parents":[2147483647,0,0,1,1,2,2,3,3,4,4,5,5,6,6],"right_children":[2,4,6,8,10,12,14,-1,-1,-1,-1,-1,-1,-1,-1],"split_conditions":[3.1903E4,2.7628E4,3.793E4,2.4479E4,7E0,3.2949E4,4.2512E4,1.3590123E2,1.5800035E2,1.6500677E2,1.8795808E2,1.8947748E2,2.1403372E2,2.327631E2,2.6573532E2],"split_indices":[0,1,2,2,3,1,1,0,0,0,0,0,0,0,0],"split_type":[0,0,0,0,0,0,0,0,0,0,0,0,0,0,0],"sum_hessian":[1.45351E5,8.1283E4,6.4068E4,2.9866E4,5.1417E4,4.5288E4,1.878E4,1.1162E4,1.8704E4,1.5442E4,3.5975E4,1.614E4,2.9148E4,1.273E4,6.05E3],"tree_param":{"num_deleted":"0","num_feature":"9","num_nodes":"15","size_leaf_vector":"1"}},{"base_weights":[1.8833344E4,1.7252223E4,2.219995E4,1.5185759E4,1.8500104E4,2.1344564E4,2.531257E4,1.3768393E2,1.6114828E2,1.6467403E2,1.9130513E2,1.9976752E2,2.2418222E2,2.2262892E2,2.6025027E2],"categories":[],"categories_nodes":[],"categories_segments":[],"categories_sizes":[],"default_left":[1,0,1,0,0,0,0,0,0,0,0,0,0,0,0],"id":53,"left_children":[1,3,5,7,9,11,13,-1,-1,-1,-1,-1,-1,-1,-1],"loss_changes":[7.73329E11,2.5476832E11,1.231217E11,4.882327E10,7.870402E10,5.3067383E10,2.116341E10,0E0,0E0,0E0,0E0,0E0,0E0,0E0,0E0],"parents":[2147483647,0,0,1,1,2,2,3,3,4,4,5,5,6,6],"right_children":[2,4,6,8,10,12,14,-1,-1,-1,-1,-1,-1,-1,-1],"split_conditions":[3.3913E4,2.8641E4,4.1459E4,2.5334E4,7E0,3.5707E4,1.72E2,1.3768393E2,1.6114828E2,1.6467403E2,1.9130513E2,1.9976752E2,2.2418222E2,2.2262892E2,2.6025027E2],"split_indices":[0,1,1,2,3,2,8,0,0,0,0,0,0,0,0],"split_type":[0,0,0,0,0,0,0,0,0,0,0,0,0,0,0],"sum_hessian":[1.45351E5,9.8906E4,4.6445E4,3.7244E4,6.1662E4,3.6439E4,1.0006E4,1.4753E4,2.2491E4,1.4603E4,4.7059E4,1.6033E4,2.0406E4,1.901E3,8.105E3],"tree_param":{"num_deleted":"0","num_feature":"9","num_nodes":"15","size_leaf_vector":"1"}},{"base_weights":[1.8645021E4,1.6950543E4,2.1734516E4,1.5308932E4,1.8545729E4,2.0708527E4,2.4438723E4,1.3868745E2,1.6180888E2,1.6552075E2,1.9227255E2,1.9793604E2,2.200148E2,2.128832E2,2.5175761E2],"categories":[],"categories_nodes":[],"categories_segments":[],"categories_sizes":[],"default_left":[1,0,1,0,0,1,0,0,0,0,0,0,0,0,0],"id":54,"left_children":[1,3,5,7,9,11,13,-1,-1,-1,-1,-1,-1,-1,-1],"loss_changes":[7.6056153E11,2.4553875E11,1.4232322E11,5.787825E10,6.436579E10,4.3720376E10,3.2329695E10,0E0,0E0,0E0,0E0,0E0,0E0,0E0,0E0],"parents":[2147483647,0,0,1,1,2,2,3,3,4,4,5,5,6,6],"right_children":[2,4,6,8,10,12,14,-1,-1,-1,-1,-1,-1,-1,-1],"split_conditions":[3.2949E4,2.9498E4,3.9406E4,2.4966E4,8E0,3.5984E4,1.5E2,1.3868745E2,1.6180888E2,1.6552075E2,1.9227255E2,1.9793604E2,2.200148E2,2.128832E2,2.5175761E2],"split_indices":[1,0,2,0,3,0,8,0,0,0,0,0,0,0,0],"split_type":[0,0,0,0,0,0,0,0,0,0,0,0,0,0,0],"sum_hessian":[1.45351E5,9.3872E4,5.1479E4,4.6268E4,4.7604E4,3.7326E4,1.4153E4,1.7455E4,2.8813E4,1.2134E4,3.547E4,2.1868E4,1.5458E4,2.689E3,1.1464E4],"tree_param":{"num_deleted":"0","num_feature":"9","num_nodes":"15","size_leaf_vector":"1"}},{"base_weights":[1.8458582E4,1.5643122E4,2.0280984E4,1.3836794E4,1.6521062E4,1.9127018E4,2.2939895E4,1.2992238E2,1.4687944E2,1.5366473E2,1.7214944E2,1.625077E2,1.9649522E2,2.198072E2,2.5407397E2],"categories":[],"categories_nodes":[],"categories_segments":[],"categories_sizes":[],"default_left":[0,0,1,1,0,0,0,0,0,0,0,0,0,0,0],"id":55,"left_children":[1,3,5,7,9,11,13,-1,-1,-1,-1,-1,-1,-1,-1],"loss_changes":[7.4546623E11,9.03537E10,2.7029353E11,1.3242728E10,3.0525096E10,9.216144E10,6.2631444E10,0E0,0E0,0E0,0E0,0E0,0E0,0E0,0E0],"parents":[2147483647,0,0,1,1,2,2,3,3,4,4,5,5,6,6],"right_children":[2,4,6,8,10,12,14,-1,-1,-1,-1,-1,-1,-1,-1],"split_conditions":[3.0377E4,2.5168E4,3.7101E4,2.3582E4,2.8271E4,7E0,4.3846E4,1.2992238E2,1.4687944E2,1.5366473E2,1.7214944E2,1.625077E2,1.9649522E2,2.198072E2,2.5407397E2],"split_indices":[0,0,0,1,2,3,0,0,0,0,0,0,0,0,0],"split_type":[0,0,0,0,0,0,0,0,0,0,0,0,0,0,0],"sum_hessian":[1.45351E5,5.7118E4,8.8233E4,1.8687E4,3.8431E4,6.1535E4,2.6698E4,9.388E3,9.299E3,1.4435E4,2.3996E4,9.465E3,5.207E4,1.9232E4,7.466E3],"tree_param":{"num_deleted":"0","num_feature":"9","num_nodes":"15","size_leaf_vector":"1"}},{"base_weights":[1.8274006E4,1.6609146E4,2.1309498E4,1.4938905E4,1.8111924E4,2.0299621E4,2.397124E4,1.348999E2,1.575612E2,1.6220187E2,1.8774443E2,1.940653E2,2.1561714E2,2.0867888E2,2.4697281E2],"categories":[],"categories_nodes":[],"categories_segments":[],"categories_sizes":[],"default_left":[1,0,1,0,0,1,0,0,0,0,0,0,0,0,0],"id":56,"left_children":[1,3,5,7,9,11,13,-1,-1,-1,-1,-1,-1,-1,-1],"loss_changes":[7.342087E11,2.3535079E11,1.3789194E11,5.243719E10,6.1620617E10,4.165468E10,3.1375491E10,0E0,0E0,0E0,0E0,0E0,0E0,0E0,0E0],"parents":[2147483647,0,0,1,1,2,2,3,3,4,4,5,5,6,6],"right_children":[2,4,6,8,10,12,14,-1,-1,-1,-1,-1,-1,-1,-1],"split_conditions":[3.2949E4,2.9251E4,3.9406E4,2.5643E4,8E0,3.5984E4,1.5E2,1.348999E2,1.575612E2,1.6220187E2,1.8774443E2,1.940653E2,2.1561714E2,2.0867888E2,2.4697281E2],"split_indices":[1,0,2,2,3,0,8,0,0,0,0,0,0,0,0],"split_type":[0,0,0,0,0,0,0,0,0,0,0,0,0,0,0],"sum_hessian":[1.45351E5,9.3872E4,5.1479E4,4.4464E4,4.9408E4,3.7326E4,1.4153E4,1.6041E4,2.8423E4,1.2822E4,3.6586E4,2.1868E4,1.5458E4,2.689E3,1.1464E4],"tree_param":{"num_deleted":"0","num_feature":"9","num_nodes":"15","size_leaf_vector":"1"}},{"base_weights":[1.8091277E4,1.6443062E4,2.109642E4,1.4851785E4,1.7989336E4,2.0096637E4,2.373156E4,1.3448679E2,1.5701295E2,1.6054971E2,1.8650595E2,1.9212474E2,2.134611E2,2.130594E2,2.4644553E2],"categories":[],"categories_nodes":[],"categories_segments":[],"categories_sizes":[],"default_left":[1,0,1,0,0,1,0,0,0,0,0,0,0,0,0],"id":57,"left_children":[1,3,5,7,9,11,13,-1,-1,-1,-1,-1,-1,-1,-1],"loss_changes":[7.1959996E11,2.3070979E11,1.3515096E11,5.494014E10,6.0593013E10,4.0826307E10,3.0820794E10,0E0,0E0,0E0,0E0,0E0,0E0,0E0,0E0],"parents":[2147483647,0,0,1,1,2,2,3,3,4,4,5,5,6,6],"right_children":[2,4,6,8,10,12,14,-1,-1,-1,-1,-1,-1,-1,-1],"split_conditions":[3.2949E4,2.9498E4,3.9406E4,2.4966E4,8E0,3.5984E4,1.72E2,1.3448679E2,1.5701295E2,1.6054971E2,1.8650595E2,1.9212474E2,2.134611E2,2.130594E2,2.4644553E2],"split_indices":[1,0,2,0,3,0,8,0,0,0,0,0,0,0,0],"split_type":[0,0,0,0,0,0,0,0,0,0,0,0,0,0,0],"sum_hessian":[1.45351E5,9.3872E4,5.1479E4,4.6268E4,4.7604E4,3.7326E4,1.4153E4,1.7455E4,2.8813E4,1.2134E4,3.547E4,2.1868E4,1.5458E4,3.877E3,1.0276E4],"tree_param":{"num_deleted":"0","num_feature":"9","num_nodes":"15","size_leaf_vector":"1"}},{"base_weights":[1.7910375E4,1.6399273E4,2.1127885E4,1.4426224E4,1.7590748E4,2.0321102E4,2.4219463E4,1.3064676E2,1.5318712E2,1.5651169E2,1.8192278E2,1.9940779E2,2.3846736E2,2.0551009E2,2.4856912E2],"categories":[],"categories_nodes":[],"categories_segments":[],"categories_sizes":[],"default_left":[1,0,0,0,0,1,0,0,0,0,0,0,0,0,0],"id":58,"left_children":[1,3,5,7,9,11,13,-1,-1,-1,-1,-1,-1,-1,-1],"loss_changes":[7.0635015E11,2.3226168E11,1.15353846E11,4.5059408E10,7.165759E10,4.892236E10,2.1955084E10,0E0,0E0,0E0,0E0,0E0,0E0,0E0,0E0],"parents":[2147483647,0,0,1,1,2,2,3,3,4,4,5,5,6,6],"right_children":[2,4,6,8,10,12,14,-1,-1,-1,-1,-1,-1,-1,-1],"split_conditions":[3.3913E4,2.8641E4,4.2509E4,2.5334E4,7E0,4.2866E4,1.65E2,1.3064676E2,1.5318712E2,1.5651169E2,1.8192278E2,1.9940779E2,2.3846736E2,2.0551009E2,2.4856912E2],"split_indices":[0,1,0,2,3,2,8,0,0,0,0,0,0,0,0],"split_type":[0,0,0,0,0,0,0,0,0,0,0,0,0,0,0],"sum_hessian":[1.45351E5,9.8906E4,4.6445E4,3.7244E4,6.1662E4,3.6839E4,9.606E3,1.4753E4,2.2491E4,1.4603E4,4.7059E4,3.3258E4,3.581E3,1.427E3,8.179E3],"tree_param":{"num_deleted":"0","num_feature":"9","num_nodes":"15","size_leaf_vector":"1"}},{"base_weights":[1.7731281E4,1.6112351E4,2.0683031E4,1.4490487E4,1.75716E4,1.9531166E4,2.2890674E4,1.2858061E2,1.5184117E2,1.5733966E2,1.8215172E2,1.8738736E2,2.0749835E2,2.2025462E2,2.5416171E2],"categories":[],"categories_nodes":[],"categories_segments":[],"categories_sizes":[],"default_left":[1,0,1,0,0,1,0,0,0,0,0,0,0,0,0],"id":59,"left_children":[1,3,5,7,9,11,13,-1,-1,-1,-1,-1,-1,-1,-1],"loss_changes":[6.94258E11,2.2191433E11,1.3046173E11,5.015339E10,5.8146685E10,3.2286704E10,3.79962E10,0E0,0E0,0E0,0E0,0E0,0E0,0E0,0E0],"parents":[2147483647,0,0,1,1,2,2,3,3,4,4,5,5,6,6],"right_children":[2,4,6,8,10,12,14,-1,-1,-1,-1,-1,-1,-1,-1],"split_conditions":[3.2949E4,2.9251E4,3.8169E4,2.4102E4,8E0,3.5984E4,4.4224E4,1.2858061E2,1.5184117E2,1.5733966E2,1.8215172E2,1.8738736E2,2.0749835E2,2.2025462E2,2.5416171E2],"split_indices":[1,0,2,0,3,0,0,0,0,0,0,0,0,0,0],"split_type":[0,0,0,0,0,0,0,0,0,0,0,0,0,0,0],"sum_hessian":[1.45351E5,9.3872E4,5.1479E4,4.4464E4,4.9408E4,3.3835E4,1.7644E4,1.3265E4,3.1199E4,1.2822E4,3.6586E4,2.0513E4,1.3322E4,1.3149E4,4.495E3],"tree_param":{"num_deleted":"0","num_feature":"9","num_nodes":"15","size_leaf_vector":"1"}},{"base_weights":[1.7553979E4,1.6108132E4,2.0793645E4,1.4139629E4,1.727126E4,1.996932E4,2.369226E4,1.27944984E2,1.5019067E2,1.5342256E2,1.7857361E2,1.8633228E2,2.0984137E2,2.0755835E2,2.4366455E2],"categories":[],"categories_nodes":[],"categories_segments":[],"categories_sizes":[],"default_left":[1,0,1,0,0,0,0,0,0,0,0,0,0,0,0],"id":60,"left_children":[1,3,5,7,9,11,13,-1,-1,-1,-1,-1,-1,-1,-1],"loss_changes":[6.8050066E11,2.2987303E11,1.0668632E11,4.397151E10,7.114798E10,4.696467E10,1.9143328E10,0E0,0E0,0E0,0E0,0E0,0E0,0E0,0E0],"parents":[2147483647,0,0,1,1,2,2,3,3,4,4,5,5,6,6],"right_children":[2,4,6,8,10,12,14,-1,-1,-1,-1,-1,-1,-1,-1],"split_conditions":[3.4118E4,2.8641E4,4.1459E4,2.5334E4,7E0,3.5707E4,1.72E2,1.27944984E2,1.5019067E2,1.5342256E2,1.7857361E2,1.8633228E2,2.0984137E2,2.0755835E2,2.4366455E2],"split_indices":[0,1,1,2,3,2,8,0,0,0,0,0,0,0,0],"split_type":[0,0,0,0,0,0,0,0,0,0,0,0,0,0,0],"sum_hessian":[1.45351E5,1.00503E5,4.4848E4,3.7333E4,6.317E4,3.4924E4,9.924E3,1.4765E4,2.2568E4,1.4727E4,4.8443E4,1.5084E4,1.984E4,1.859E3,8.065E3],"tree_param":{"num_deleted":"0","num_feature":"9","num_nodes":"15","size_leaf_vector":"1"}},{"base_weights":[1.737845E4,1.578862E4,2.027714E4,1.4257209E4,1.727672E4,1.9311855E4,2.2821363E4,1.27377525E2,1.4991174E2,1.541323E2,1.7913753E2,1.8464581E2,2.0509195E2,1.9819963E2,2.3523581E2],"categories":[],"categories_nodes":[],"categories_segments":[],"categories_sizes":[],"default_left":[1,0,1,0,0,1,0,0,0,0,0,0,0,0,0],"id":61,"left_children":[1,3,5,7,9,11,13,-1,-1,-1,-1,-1,-1,-1,-1],"loss_changes":[6.6952E11,2.1368301E11,1.259885E11,5.1408536E10,5.623513E10,3.7489738E10,2.9365895E10,0E0,0E0,0E0,0E0,0E0,0E0,0E0,0E0],"parents":[2147483647,0,0,1,1,2,2,3,3,4,4,5,5,6,6],"right_children":[2,4,6,8,10,12,14,-1,-1,-1,-1,-1,-1,-1,-1],"split_conditions":[3.2949E4,2.9498E4,3.9406E4,2.4912E4,8E0,3.5984E4,1.5E2,1.27377525E2,1.4991174E2,1.541323E2,1.7913753E2,1.8464581E2,2.0509195E2,1.9819963E2,2.3523581E2],"split_indices":[1,0,2,1,3,0,8,0,0,0,0,0,0,0,0],"split_type":[0,0,0,0,0,0,0,0,0,0,0,0,0,0,0],"sum_hessian":[1.45351E5,9.3872E4,5.1479E4,4.6268E4,4.7604E4,3.7326E4,1.4153E4,1.5076E4,3.1192E4,1.2134E4,3.547E4,2.1868E4,1.5458E4,2.689E3,1.1464E4],"tree_param":{"num_deleted":"0","num_feature":"9","num_nodes":"15","size_leaf_vector":"1"}},{"base_weights":[1.7204674E4,1.563074E4,2.0074385E4,1.4128857E4,1.711796E4,1.92308E4,2.2942828E4,1.27651344E2,1.494203E2,1.5251346E2,1.775271E2,1.8514201E2,2.0804074E2,2.025653E2,2.3567361E2],"categories":[],"categories_nodes":[],"categories_segments":[],"categories_sizes":[],"default_left":[1,0,1,0,0,1,0,0,0,0,0,0,0,0,0],"id":62,"left_children":[1,3,5,7,9,11,13,-1,-1,-1,-1,-1,-1,-1,-1],"loss_changes":[6.5620306E11,2.0943628E11,1.2412833E11,5.161091E10,5.5607034E10,4.4471157E10,1.914123E10,0E0,0E0,0E0,0E0,0E0,0E0,0E0,0E0],"parents":[2147483647,0,0,1,1,2,2,3,3,4,4,5,5,6,6],"right_children":[2,4,6,8,10,12,14,-1,-1,-1,-1,-1,-1,-1,-1],"split_conditions":[3.2949E4,2.9565E4,4.0791E4,2.4966E4,8E0,3.7248E4,1.67E2,1.27651344E2,1.494203E2,1.5251346E2,1.775271E2,1.8514201E2,2.0804074E2,2.025653E2,2.3567361E2],"split_indices":[1,0,0,0,3,2,8,0,0,0,0,0,0,0,0],"split_type":[0,0,0,0,0,0,0,0,0,0,0,0,0,0,0],"sum_hessian":[1.45351E5,9.3872E4,5.1479E4,4.6711E4,4.7161E4,3.9786E4,1.1693E4,1.7455E4,2.9256E4,1.1974E4,3.5187E4,2.7344E4,1.2442E4,2.212E3,9.481E3],"tree_param":{"num_deleted":"0","num_feature":"9","num_nodes":"15","size_leaf_vector":"1"}},{"base_weights":[1.7032637E4,1.5625533E4,2.0185494E4,1.3713151E4,1.6755502E4,1.9394875E4,2.3083758E4,1.239749E2,1.4573329E2,1.4877806E2,1.7326015E2,1.9020686E2,2.2735355E2,1.9534717E2,2.3700497E2],"categories":[],"categories_nodes":[],"categories_segments":[],"categories_sizes":[],"default_left":[1,0,0,0,0,1,0,0,0,0,0,0,0,0,0],"id":63,"left_children":[1,3,5,7,9,11,13,-1,-1,-1,-1,-1,-1,-1,-1],"loss_changes":[6.445219E11,2.1695247E11,1.0232005E11,4.207044E10,6.741295E10,4.362181E10,2.0565197E10,0E0,0E0,0E0,0E0,0E0,0E0,0E0,0E0],"parents":[2147483647,0,0,1,1,2,2,3,3,4,4,5,5,6,6],"right_children":[2,4,6,8,10,12,14,-1,-1,-1,-1,-1,-1,-1,-1],"split_conditions":[3.4118E4,2.8641E4,4.2509E4,2.5334E4,7E0,4.2866E4,1.65E2,1.239749E2,1.4573329E2,1.4877806E2,1.7326015E2,1.9020686E2,2.2735355E2,1.9534717E2,2.3700497E2],"split_indices":[0,1,0,2,3,2,8,0,0,0,0,0,0,0,0],"split_type":[0,0,0,0,0,0,0,0,0,0,0,0,0,0,0],"sum_hessian":[1.45351E5,1.00503E5,4.4848E4,3.7333E4,6.317E4,3.5242E4,9.606E3,1.4765E4,2.2568E4,1.4727E4,4.8443E4,3.1698E4,3.544E3,1.427E3,8.179E3],"tree_param":{"num_deleted":"0","num_feature":"9","num_nodes":"15","size_leaf_vector":"1"}},{"base_weights":[1.686232E4,1.4402425E4,1.8633725E4,1.2763794E4,1.528398E4,1.7557986E4,2.108704E4,1.1687285E2,1.3426611E2,1.4585498E2,1.6276729E2,1.4680008E2,1.8067331E2,2.0246771E2,2.362622E2],"categories":[],"categories_nodes":[],"categories_segments":[],"categories_sizes":[],"default_left":[0,0,1,1,1,0,1,0,0,0,0,0,0,0,0],"id":64,"left_children":[1,3,5,7,9,11,13,-1,-1,-1,-1,-1,-1,-1,-1],"loss_changes":[6.3309663E11,8.771233E10,2.2263366E11,1.5036318E10,2.7196916E10,8.585111E10,5.4464086E10,0E0,0E0,0E0,0E0,0E0,0E0,0E0,0E0],"parents":[2147483647,0,0,1,1,2,2,3,3,4,4,5,5,6,6],"right_children":[2,4,6,8,10,12,14,-1,-1,-1,-1,-1,-1,-1,-1],"split_conditions":[3.0764E4,2.6625E4,3.6744E4,2.3582E4,2.948E4,7E0,4.2866E4,1.1687285E2,1.3426611E2,1.4585498E2,1.6276729E2,1.4680008E2,1.8067331E2,2.0246771E2,2.362622E2],"split_indices":[0,2,1,1,1,3,2,0,0,0,0,0,0,0,0],"split_type":[0,0,0,0,0,0,0,0,0,0,0,0,0,0,0],"sum_hessian":[1.45351E5,6.0854E4,8.4497E4,2.1292E4,3.9562E4,5.8746E4,2.5751E4,8.121E3,1.3171E4,2.3232E4,1.633E4,8.838E3,4.9908E4,1.9355E4,6.396E3],"tree_param":{"num_deleted":"0","num_feature":"9","num_nodes":"15","size_leaf_vector":"1"}},{"base_weights":[1.6693707E4,1.5161127E4,1.948802E4,1.3631389E4,1.6537488E4,1.8356191E4,2.1519615E4,1.1974651E2,1.425902E2,1.5004463E2,1.7225421E2,1.7625238E2,1.9503865E2,2.0696625E2,2.399574E2],"categories":[],"categories_nodes":[],"categories_segments":[],"categories_sizes":[],"default_left":[1,0,1,0,0,1,0,0,0,0,0,0,0,0,0],"id":65,"left_children":[1,3,5,7,9,11,13,-1,-1,-1,-1,-1,-1,-1,-1],"loss_changes":[6.2217886E11,1.974196E11,1.1797948E11,4.6065517E10,5.1849986E10,2.7398242E10,3.7025743E10,0E0,0E0,0E0,0E0,0E0,0E0,0E0,0E0],"parents":[2147483647,0,0,1,1,2,2,3,3,4,4,5,5,6,6],"right_children":[2,4,6,8,10,12,14,-1,-1,-1,-1,-1,-1,-1,-1],"split_conditions":[3.2949E4,2.9251E4,3.793E4,2.3884E4,9E0,3.5984E4,4.4224E4,1.1974651E2,1.425902E2,1.5004463E2,1.7225421E2,1.7625238E2,1.9503865E2,2.0696625E2,2.399574E2],"split_indices":[1,0,2,0,3,0,0,0,0,0,0,0,0,0,0],"split_type":[0,0,0,0,0,0,0,0,0,0,0,0,0,0,0],"sum_hessian":[1.45351E5,9.3872E4,5.1479E4,4.4464E4,4.9408E4,3.3067E4,1.8412E4,1.2222E4,3.2242E4,1.5311E4,3.4097E4,2.0211E4,1.2856E4,1.3826E4,4.586E3],"tree_param":{"num_deleted":"0","num_feature":"9","num_nodes":"15","size_leaf_vector":"1"}},{"base_weights":[1.652678E4,1.5157186E4,1.9595592E4,1.3495226E4,1.6384996E4,1.8822578E4,2.2429328E4,1.2629855E2,1.477561E2,1.4996518E2,1.6986916E2,1.8457933E2,2.2077896E2,1.8947603E2,2.3034398E2],"categories":[],"categories_nodes":[],"categories_segments":[],"categories_sizes":[],"default_left":[1,0,0,1,0,1,0,0,0,0,0,0,0,0,0],"id":66,"left_children":[1,3,5,7,9,11,13,-1,-1,-1,-1,-1,-1,-1,-1],"loss_changes":[6.1062355E11,2.0486658E11,9.782061E10,4.713349E10,4.80489E10,4.142609E10,1.9802882E10,0E0,0E0,0E0,0E0,0E0,0E0,0E0,0E0],"parents":[2147483647,0,0,1,1,2,2,3,3,4,4,5,5,6,6],"right_children":[2,4,6,8,10,12,14,-1,-1,-1,-1,-1,-1,-1,-1],"split_conditions":[3.4118E4,2.8747E4,4.2509E4,2.6625E4,9E0,4.2866E4,1.65E2,1.2629855E2,1.477561E2,1.4996518E2,1.6986916E2,1.8457933E2,2.2077896E2,1.8947603E2,2.3034398E2],"split_indices":[0,0,0,2,3,2,8,0,0,0,0,0,0,0,0],"split_type":[0,0,0,0,0,0,0,0,0,0,0,0,0,0,0],"sum_hessian":[1.45351E5,1.00503E5,4.4848E4,4.2707E4,5.7796E4,3.5242E4,9.606E3,2.549E4,1.7217E4,1.7486E4,4.031E4,3.1698E4,3.544E3,1.427E3,8.179E3],"tree_param":{"num_deleted":"0","num_feature":"9","num_nodes":"15","size_leaf_vector":"1"}},{"base_weights":[1.6361521E4,1.4900955E4,1.9191287E4,1.3450126E4,1.6321257E4,1.831104E4,2.1697174E4,1.1980173E2,1.4154605E2,1.4498447E2,1.692269E2,1.757922E2,1.951979E2,1.857125E2,2.2345341E2],"categories":[],"categories_nodes":[],"categories_segments":[],"categories_sizes":[],"default_left":[1,0,1,0,0,1,0,0,0,0,0,0,0,0,0],"id":67,"left_children":[1,3,5,7,9,11,13,-1,-1,-1,-1,-1,-1,-1,-1],"loss_changes":[6.0046075E11,1.973399E11,1.0874362E11,4.8949625E10,5.286186E10,3.2052871E10,2.5635062E10,0E0,0E0,0E0,0E0,0E0,0E0,0E0,0E0],"parents":[2147483647,0,0,1,1,2,2,3,3,4,4,5,5,6,6],"right_children":[2,4,6,8,10,12,14,-1,-1,-1,-1,-1,-1,-1,-1],"split_conditions":[3.3205E4,2.9624E4,3.9917E4,2.4541E4,8E0,3.6673E4,1.5E2,1.1980173E2,1.4154605E2,1.4498447E2,1.692269E2,1.757922E2,1.951979E2,1.857125E2,2.2345341E2],"split_indices":[1,0,2,0,3,0,8,0,0,0,0,0,0,0,0],"split_type":[0,0,0,0,0,0,0,0,0,0,0,0,0,0,0],"sum_hessian":[1.45351E5,9.5873E4,4.9478E4,4.7432E4,4.8441E4,3.6622E4,1.2856E4,1.5373E4,3.2059E4,1.2024E4,3.6417E4,2.2821E4,1.3801E4,2.213E3,1.0643E4],"tree_param":{"num_deleted":"0","num_feature":"9","num_nodes":"15","size_leaf_vector":"1"}},{"base_weights":[1.6197916E4,1.4707287E4,1.891574E4,1.3293286E4,1.6107484E4,1.814325E4,2.17608E4,1.1832345E2,1.3990073E2,1.4341563E2,1.6707996E2,1.7097311E2,1.9195546E2,1.9140747E2,2.249585E2],"categories":[],"categories_nodes":[],"categories_segments":[],"categories_sizes":[],"default_left":[1,0,0,0,0,0,0,0,0,0,0,0,0,0,0],"id":68,"left_children":[1,3,5,7,9,11,13,-1,-1,-1,-1,-1,-1,-1,-1],"loss_changes":[5.885825E11,1.85642E11,1.12747086E11,4.7385674E10,4.9773806E10,4.424047E10,2.0730872E10,0E0,0E0,0E0,0E0,0E0,0E0,0E0,0E0],"parents":[2147483647,0,0,1,1,2,2,3,3,4,4,5,5,6,6],"right_children":[2,4,6,8,10,12,14,-1,-1,-1,-1,-1,-1,-1,-1],"split_conditions":[3.2949E4,2.9565E4,4.1459E4,2.4912E4,8E0,3.5707E4,1.72E2,1.1832345E2,1.3990073E2,1.4341563E2,1.6707996E2,1.7097311E2,1.9195546E2,1.9140747E2,2.249585E2],"split_indices":[1,0,1,1,3,2,8,0,0,0,0,0,0,0,0],"split_type":[0,0,0,0,0,0,0,0,0,0,0,0,0,0,0],"sum_hessian":[1.45351E5,9.3872E4,5.1479E4,4.6711E4,4.7161E4,4.0492E4,1.0987E4,1.509E4,3.1621E4,1.1974E4,3.5187E4,2.0316E4,2.0176E4,2.413E3,8.574E3],"tree_param":{"num_deleted":"0","num_feature":"9","num_nodes":"15","size_leaf_vector":"1"}},{"base_weights":[1.6035946E4,1.4702705E4,1.9023303E4,1.2760906E4,1.5699716E4,1.8266814E4,2.1796482E4,1.15225494E2,1.3560338E2,1.40081E2,1.6236868E2,1.620806E2,1.8820811E2,1.8386287E2,2.2389143E2],"categories":[],"categories_nodes":[],"categories_segments":[],"categories_sizes":[],"default_left":[1,0,0,0,0,0,0,0,0,0,0,0,0,0,0],"id":69,"left_children":[1,3,5,7,9,11,13,-1,-1,-1,-1,-1,-1,-1,-1],"loss_changes":[5.786378E11,1.9437453E11,9.368922E10,3.360424E10,6.010962E10,3.9890977E10,1.9004916E10,0E0,0E0,0E0,0E0,0E0,0E0,0E0,0E0],"parents":[2147483647,0,0,1,1,2,2,3,3,4,4,5,5,6,6],"right_children":[2,4,6,8,10,12,14,-1,-1,-1,-1,-1,-1,-1,-1],"split_conditions":[3.4118E4,2.8145E4,4.2509E4,2.5031E4,7E0,3.2892E4,1.65E2,1.15225494E2,1.3560338E2,1.40081E2,1.6236868E2,1.620806E2,1.8820811E2,1.8386287E2,2.2389143E2],"split_indices":[0,1,0,2,3,2,8,0,0,0,0,0,0,0,0],"split_type":[0,0,0,0,0,0,0,0,0,0,0,0,0,0,0],"sum_hessian":[1.45351E5,1.00503E5,4.4848E4,3.4101E4,6.6402E4,3.5242E4,9.606E3,1.3384E4,2.0717E4,1.601E4,5.0392E4,7.479E3,2.7763E4,1.427E3,8.179E3],"tree_param":{"num_deleted":"0","num_feature":"9","num_nodes":"15","size_leaf_vector":"1"}},{"base_weights":[1.5875596E4,1.4455159E4,1.8627611E4,1.3045995E4,1.5834673E4,1.785182E4,2.1343592E4,1.1492188E2,1.3683328E2,1.4063794E2,1.641897E2,1.6824498E2,1.8840761E2,1.8767404E2,2.206634E2],"categories":[],"categories_nodes":[],"categories_segments":[],"categories_sizes":[],"default_left":[1,0,0,0,0,0,0,0,0,0,0,0,0,0,0],"id":70,"left_children":[1,3,5,7,9,11,13,-1,-1,-1,-1,-1,-1,-1,-1],"loss_changes":[5.6792134E11,1.8616838E11,1.0387194E11,4.681525E10,4.9893343E10,3.8788923E10,2.0045103E10,0E0,0E0,0E0,0E0,0E0,0E0,0E0,0E0],"parents":[2147483647,0,0,1,1,2,2,3,3,4,4,5,5,6,6],"right_children":[2,4,6,8,10,12,14,-1,-1,-1,-1,-1,-1,-1,-1],"split_conditions":[3.3205E4,2.9624E4,4.1459E4,2.4213E4,8E0,3.5707E4,1.72E2,1.1492188E2,1.3683328E2,1.4063794E2,1.641897E2,1.6824498E2,1.8840761E2,1.8767404E2,2.206634E2],"split_indices":[1,0,1,0,3,2,8,0,0,0,0,0,0,0,0],"split_type":[0,0,0,0,0,0,0,0,0,0,0,0,0,0,0],"sum_hessian":[1.45351E5,9.5873E4,4.9478E4,4.7432E4,4.8441E4,3.8491E4,1.0987E4,1.3802E4,3.363E4,1.2024E4,3.6417E4,1.8888E4,1.9603E4,2.413E3,8.574E3],"tree_param":{"num_deleted":"0","num_feature":"9","num_nodes":"15","size_leaf_vector":"1"}},{"base_weights":[1.5716849E4,1.4188016E4,1.8228762E4,1.2473997E4,1.5197939E4,1.7396953E4,2.0820477E4,1.1286897E2,1.3257072E2,1.3687596E2,1.5743703E2,1.5661179E2,1.8028722E2,1.7974728E2,2.1519548E2],"categories":[],"categories_nodes":[],"categories_segments":[],"categories_sizes":[],"default_left":[1,0,0,0,0,0,0,0,0,0,0,0,0,0,0],"id":71,"left_children":[1,3,5,7,9,11,13,-1,-1,-1,-1,-1,-1,-1,-1],"loss_changes":[5.579347E11,1.5622944E11,1.18189195E11,3.0999052E10,4.664905E10,4.5376078E10,2.6183467E10,0E0,0E0,0E0,0E0,0E0,0E0,0E0,0E0],"parents":[2147483647,0,0,1,1,2,2,3,3,4,4,5,5,6,6],"right_children":[2,4,6,8,10,12,14,-1,-1,-1,-1,-1,-1,-1,-1],"split_conditions":[3.2853E4,2.8145E4,4.0791E4,2.5031E4,7E0,3.2892E4,1.65E2,1.1286897E2,1.3257072E2,1.3687596E2,1.5743703E2,1.5661179E2,1.8028722E2,1.7974728E2,2.1519548E2],"split_indices":[0,1,0,2,3,2,8,0,0,0,0,0,0,0,0],"split_type":[0,0,0,0,0,0,0,0,0,0,0,0,0,0,0],"sum_hessian":[1.45351E5,9.0361E4,5.499E4,3.3507E4,5.6854E4,4.1635E4,1.3355E4,1.3324E4,2.0183E4,1.5098E4,4.1756E4,1.1117E4,3.0518E4,2.639E3,1.0716E4],"tree_param":{"num_deleted":"0","num_feature":"9","num_nodes":"15","size_leaf_vector":"1"}},{"base_weights":[1.5559688E4,1.4056059E4,1.806791E4,1.2675517E4,1.5355949E4,1.701963E4,2.007633E4,1.1120902E2,1.3270943E2,1.3933354E2,1.6018307E2,1.6268712E2,1.8067561E2,1.930423E2,2.2425941E2],"categories":[],"categories_nodes":[],"categories_segments":[],"categories_sizes":[],"default_left":[1,0,1,0,0,1,0,0,0,0,0,0,0,0,0],"id":72,"left_children":[1,3,5,7,9,11,13,-1,-1,-1,-1,-1,-1,-1,-1],"loss_changes":[5.479355E11,1.6289209E11,1.1434931E11,4.065434E10,4.3876614E10,2.7876393E10,3.3448002E10,0E0,0E0,0E0,0E0,0E0,0E0,0E0,0E0],"parents":[2147483647,0,0,1,1,2,2,3,3,4,4,5,5,6,6],"right_children":[2,4,6,8,10,12,14,-1,-1,-1,-1,-1,-1,-1,-1],"split_conditions":[3.2594E4,2.9251E4,3.793E4,2.3884E4,9E0,3.5448E4,4.4224E4,1.1120902E2,1.3270943E2,1.3933354E2,1.6018307E2,1.6268712E2,1.8067561E2,1.930423E2,2.2425941E2],"split_indices":[1,0,2,0,3,0,0,0,0,0,0,0,0,0,0],"split_type":[0,0,0,0,0,0,0,0,0,0,0,0,0,0,0],"sum_hessian":[1.45351E5,9.0878E4,5.4473E4,4.4077E4,4.6801E4,3.5798E4,1.8675E4,1.2212E4,3.1865E4,1.4875E4,3.1926E4,2.0864E4,1.4934E4,1.4063E4,4.612E3],"tree_param":{"num_deleted":"0","num_feature":"9","num_nodes":"15","size_leaf_vector":"1"}},{"base_weights":[1.5404101E4,1.4118736E4,1.8284184E4,1.2249603E4,1.5078438E4,1.757705E4,2.1066719E4,1.10499146E2,1.3024077E2,1.3449797E2,1.5595595E2,1.7261992E2,2.1116534E2,1.767876E2,2.1625269E2],"categories":[],"categories_nodes":[],"categories_segments":[],"categories_sizes":[],"default_left":[1,0,0,0,0,1,0,0,0,0,0,0,0,0,0],"id":73,"left_children":[1,3,5,7,9,11,13,-1,-1,-1,-1,-1,-1,-1,-1],"loss_changes":[5.378272E11,1.8010132E11,8.787591E10,3.154169E10,5.571923E10,3.952188E10,1.6806052E10,0E0,0E0,0E0,0E0,0E0,0E0,0E0,0E0],"parents":[2147483647,0,0,1,1,2,2,3,3,4,4,5,5,6,6],"right_children":[2,4,6,8,10,12,14,-1,-1,-1,-1,-1,-1,-1,-1],"split_conditions":[3.4118E4,2.8145E4,4.2788E4,2.5031E4,7E0,4.3901E4,1.65E2,1.10499146E2,1.3024077E2,1.3449797E2,1.5595595E2,1.7261992E2,2.1116534E2,1.767876E2,2.1625269E2],"split_indices":[0,1,0,2,3,2,8,0,0,0,0,0,0,0,0],"split_type":[0,0,0,0,0,0,0,0,0,0,0,0,0,0,0],"sum_hessian":[1.45351E5,1.00503E5,4.4848E4,3.4101E4,6.6402E4,3.5766E4,9.082E3,1.3384E4,2.0717E4,1.601E4,5.0392E4,3.2848E4,2.918E3,1.29E3,7.792E3],"tree_param":{"num_deleted":"0","num_feature":"9","num_nodes":"15","size_leaf_vector":"1"}},{"base_weights":[1.5250069E4,1.3879189E4,1.7906074E4,1.2523138E4,1.5206709E4,1.7152379E4,2.0544707E4,1.11140785E2,1.3181804E2,1.32796E2,1.5708235E2,1.6158846E2,1.8108803E2,1.8043436E2,2.124646E2],"categories":[],"categories_nodes":[],"categories_segments":[],"categories_sizes":[],"default_left":[1,0,0,0,0,0,0,0,0,0,0,0,0,0,0],"id":74,"left_children":[1,3,5,7,9,11,13,-1,-1,-1,-1,-1,-1,-1,-1],"loss_changes":[5.2898772E11,1.7240057E11,9.80492E10,4.387609E10,4.6609203E10,3.6283875E10,1.8903728E10,0E0,0E0,0E0,0E0,0E0,0E0,0E0,0E0],"parents":[2147483647,0,0,1,1,2,2,3,3,4,4,5,5,6,6],"right_children":[2,4,6,8,10,12,14,-1,-1,-1,-1,-1,-1,-1,-1],"split_conditions":[3.3205E4,2.9624E4,4.1459E4,2.4912E4,7E0,3.5707E4,1.72E2,1.11140785E2,1.3181804E2,1.32796E2,1.5708235E2,1.6158846E2,1.8108803E2,1.8043436E2,2.124646E2],"split_indices":[1,0,1,1,3,2,8,0,0,0,0,0,0,0,0],"split_type":[0,0,0,0,0,0,0,0,0,0,0,0,0,0,0],"sum_hessian":[1.45351E5,9.5873E4,4.9478E4,4.7432E4,4.8441E4,3.8491E4,1.0987E4,1.5115E4,3.2317E4,1.0009E4,3.8432E4,1.8888E4,1.9603E4,2.413E3,8.574E3],"tree_param":{"num_deleted":"0","num_feature":"9","num_nodes":"15","size_leaf_vector":"1"}},{"base_weights":[1.5097577E4,1.3835502E4,1.7925479E4,1.2126916E4,1.4845055E4,1.722935E4,2.0664719E4,1.1061815E2,1.3010512E2,1.316138E2,1.5356621E2,1.6919342E2,2.071212E2,1.7330559E2,2.121441E2],"categories":[],"categories_nodes":[],"categories_segments":[],"categories_sizes":[],"default_left":[1,0,0,0,0,1,0,0,0,0,0,0,0,0,0],"id":75,"left_children":[1,3,5,7,9,11,13,-1,-1,-1,-1,-1,-1,-1,-1],"loss_changes":[5.1851873E11,1.7318072E11,8.516534E10,3.499203E10,5.4208233E10,3.8265684E10,1.6279142E10,0E0,0E0,0E0,0E0,0E0,0E0,0E0,0E0],"parents":[2147483647,0,0,1,1,2,2,3,3,4,4,5,5,6,6],"right_children":[2,4,6,8,10,12,14,-1,-1,-1,-1,-1,-1,-1,-1],"split_conditions":[3.4118E4,2.8641E4,4.2788E4,2.5934E4,7E0,4.3901E4,1.65E2,1.1061815E2,1.3010512E2,1.316138E2,1.5356621E2,1.6919342E2,2.071212E2,1.7330559E2,2.121441E2],"split_indices":[0,1,0,2,3,2,8,0,0,0,0,0,0,0,0],"split_type":[0,0,0,0,0,0,0,0,0,0,0,0,0,0,0],"sum_hessian":[1.45351E5,1.00503E5,4.4848E4,3.7333E4,6.317E4,3.5766E4,9.082E3,1.6934E4,2.0399E4,1.4727E4,4.8443E4,3.2848E4,2.918E3,1.29E3,7.792E3],"tree_param":{"num_deleted":"0","num_feature":"9","num_nodes":"15","size_leaf_vector":"1"}},{"base_weights":[1.494661E4,1.3600003E4,1.755559E4,1.2270096E4,1.4901929E4,1.6733062E4,1.9897182E4,1.0656989E2,1.2829837E2,1.3416954E2,1.5530557E2,1.6058882E2,1.7846626E2,1.6926488E2,2.0513228E2],"categories":[],"categories_nodes":[],"categories_segments":[],"categories_sizes":[],"default_left":[1,0,1,0,0,1,0,0,0,0,0,0,0,0,0],"id":76,"left_children":[1,3,5,7,9,11,13,-1,-1,-1,-1,-1,-1,-1,-1],"loss_changes":[5.1041953E11,1.6581761E11,9.4964285E10,4.26912E10,4.501327E10,2.720845E10,2.3182442E10,0E0,0E0,0E0,0E0,0E0,0E0,0E0,0E0],"parents":[2147483647,0,0,1,1,2,2,3,3,4,4,5,5,6,6],"right_children":[2,4,6,8,10,12,14,-1,-1,-1,-1,-1,-1,-1,-1],"split_conditions":[3.3205E4,2.9624E4,3.9917E4,2.3884E4,9E0,3.6673E4,1.5E2,1.0656989E2,1.2829837E2,1.3416954E2,1.5530557E2,1.6058882E2,1.7846626E2,1.6926488E2,2.0513228E2],"split_indices":[1,0,2,0,3,0,8,0,0,0,0,0,0,0,0],"split_type":[0,0,0,0,0,0,0,0,0,0,0,0,0,0,0],"sum_hessian":[1.45351E5,9.5873E4,4.9478E4,4.7432E4,4.8441E4,3.6622E4,1.2856E4,1.2224E4,3.5208E4,1.4414E4,3.4027E4,2.2821E4,1.3801E4,2.213E3,1.0643E4],"tree_param":{"num_deleted":"0","num_feature":"9","num_nodes":"15","size_leaf_vector":"1"}},{"base_weights":[1.4797152E4,1.3360205E4,1.719414E4,1.2045346E4,1.459825E4,1.6187881E4,1.9122066E4,1.04007576E2,1.2568019E2,1.3238019E2,1.5231577E2,1.481206E2,1.6709998E2,1.8381252E2,2.1376497E2],"categories":[],"categories_nodes":[],"categories_segments":[],"categories_sizes":[],"default_left":[1,0,1,0,0,0,0,0,0,0,0,0,0,0,0],"id":77,"left_children":[1,3,5,7,9,11,13,-1,-1,-1,-1,-1,-1,-1,-1],"loss_changes":[5.0041192E11,1.4776218E11,1.0537035E11,3.775765E10,4.011747E10,2.5468862E10,3.0797726E10,0E0,0E0,0E0,0E0,0E0,0E0,0E0,0E0],"parents":[2147483647,0,0,1,1,2,2,3,3,4,4,5,5,6,6],"right_children":[2,4,6,8,10,12,14,-1,-1,-1,-1,-1,-1,-1,-1],"split_conditions":[3.2594E4,2.9251E4,3.793E4,2.3537E4,9E0,3.2225E4,4.4224E4,1.04007576E2,1.2568019E2,1.3238019E2,1.5231577E2,1.481206E2,1.6709998E2,1.8381252E2,2.1376497E2],"split_indices":[1,0,2,0,3,2,0,0,0,0,0,0,0,0,0],"split_type":[0,0,0,0,0,0,0,0,0,0,0,0,0,0,0],"sum_hessian":[1.45351E5,9.0878E4,5.4473E4,4.4077E4,4.6801E4,3.5798E4,1.8675E4,1.0635E4,3.3442E4,1.4875E4,3.1926E4,9.856E3,2.5942E4,1.4063E4,4.612E3],"tree_param":{"num_deleted":"0","num_feature":"9","num_nodes":"15","size_leaf_vector":"1"}},{"base_weights":[1.4649189E4,1.3111726E4,1.684927E4,1.1280951E4,1.391766E4,1.6051389E4,1.9322373E4,1.0081203E2,1.18607895E2,1.2866187E2,1.4606427E2,1.4502286E2,1.673508E2,1.670766E2,1.9993552E2],"categories":[],"categories_nodes":[],"categories_segments":[],"categories_sizes":[],"default_left":[1,0,1,0,0,0,0,0,0,0,0,0,0,0,0],"id":78,"left_children":[1,3,5,7,9,11,13,-1,-1,-1,-1,-1,-1,-1,-1],"loss_changes":[4.914382E11,1.2609336E11,1.17665956E11,1.8078499E10,4.283538E10,4.7639953E10,2.5251283E10,0E0,0E0,0E0,0E0,0E0,0E0,0E0,0E0],"parents":[2147483647,0,0,1,1,2,2,3,3,4,4,5,5,6,6],"right_children":[2,4,6,8,10,12,14,-1,-1,-1,-1,-1,-1,-1,-1],"split_conditions":[3.2327E4,2.6436E4,3.9671E4,2.3063E4,3.0702E4,3.3021E4,1.6E2,1.0081203E2,1.18607895E2,1.2866187E2,1.4606427E2,1.4502286E2,1.673508E2,1.670766E2,1.9993552E2],"split_indices":[0,0,1,0,2,2,8,0,0,0,0,0,0,0,0],"split_type":[0,0,0,0,0,0,0,0,0,0,0,0,0,0,0],"sum_hessian":[1.45351E5,8.5564E4,5.9787E4,2.6158E4,5.9406E4,4.5209E4,1.4578E4,8.529E3,1.7629E4,2.352E4,3.5886E4,1.385E4,3.1359E4,2.983E3,1.1595E4],"tree_param":{"num_deleted":"0","num_feature":"9","num_nodes":"15","size_leaf_vector":"1"}},{"base_weights":[1.4502705E4,1.3337244E4,1.7353004E4,1.1374758E4,1.4174369E4,1.6733738E4,2.022972E4,1.0354302E2,1.21053894E2,1.293148E2,1.4838016E2,1.6397498E2,1.9995078E2,2.0750275E2,1.6742343E2],"categories":[],"categories_nodes":[],"categories_segments":[],"categories_sizes":[],"default_left":[1,0,0,1,0,1,0,0,0,0,0,0,0,0,0],"id":79,"left_children":[1,3,5,7,9,11,13,-1,-1,-1,-1,-1,-1,-1,-1],"loss_changes":[4.826134E11,1.6933454E11,7.480541E10,2.2879404E10,5.9458454E10,3.7740347E10,1.3208125E10,0E0,0E0,0E0,0E0,0E0,0E0,0E0,0E0],"parents":[2147483647,0,0,1,1,2,2,3,3,4,4,5,5,6,6],"right_children":[2,4,6,8,10,12,14,-1,-1,-1,-1,-1,-1,-1,-1],"split_conditions":[3.4485E4,2.8123E4,4.3846E4,2.4809E4,9E0,4.3901E4,2.34E2,1.0354302E2,1.21053894E2,1.293148E2,1.4838016E2,1.6397498E2,1.9995078E2,2.0750275E2,1.6742343E2],"split_indices":[0,2,0,1,3,2,8,0,0,0,0,0,0,0,0],"split_type":[0,0,0,0,0,0,0,0,0,0,0,0,0,0,0],"sum_hessian":[1.45351E5,1.03171E5,4.218E4,3.0854E4,7.2317E4,3.4714E4,7.466E3,1.288E4,1.7974E4,2.518E4,4.7137E4,3.1475E4,3.239E3,6.492E3,9.74E2],"tree_param":{"num_deleted":"0","num_feature":"9","num_nodes":"15","size_leaf_vector":"1"}},{"base_weights":[1.4357687E4,1.305821E4,1.6875354E4,1.1778796E4,1.4310706E4,1.6154445E4,1.9399225E4,1.0504329E2,1.2441487E2,1.2469864E2,1.4789787E2,1.5207489E2,1.706604E2,1.7003705E2,2.007134E2],"categories":[],"categories_nodes":[],"categories_segments":[],"categories_sizes":[],"default_left":[1,0,0,0,0,0,0,0,0,0,0,0,0,0,0],"id":80,"left_children":[1,3,5,7,9,11,13,-1,-1,-1,-1,-1,-1,-1,-1],"loss_changes":[4.753216E11,1.5346539E11,8.971092E10,3.99303E10,4.2537583E10,3.2968278E10,1.7350263E10,0E0,0E0,0E0,0E0,0E0,0E0,0E0,0E0],"parents":[2147483647,0,0,1,1,2,2,3,3,4,4,5,5,6,6],"right_children":[2,4,6,8,10,12,14,-1,-1,-1,-1,-1,-1,-1,-1],"split_conditions":[3.3205E4,2.9624E4,4.1459E4,2.5643E4,7E0,3.5707E4,1.72E2,1.0504329E2,1.2441487E2,1.2469864E2,1.4789787E2,1.5207489E2,1.706604E2,1.7003705E2,2.007134E2],"split_indices":[1,0,1,2,3,2,8,0,0,0,0,0,0,0,0],"split_type":[0,0,0,0,0,0,0,0,0,0,0,0,0,0,0],"sum_hessian":[1.45351E5,9.5873E4,4.9478E4,4.7432E4,4.8441E4,3.8491E4,1.0987E4,1.6232E4,3.12E4,1.0009E4,3.8432E4,1.8888E4,1.9603E4,2.413E3,8.574E3],"tree_param":{"num_deleted":"0","num_feature":"9","num_nodes":"15","size_leaf_vector":"1"}},{"base_weights":[1.4214118E4,1.2827583E4,1.6527014E4,1.1259833E4,1.3795823E4,1.5552676E4,1.8393785E4,9.7999695E1,1.17568474E2,1.21580414E2,1.4399106E2,1.4223817E2,1.6056973E2,1.7640112E2,2.0481247E2],"categories":[],"categories_nodes":[],"categories_segments":[],"categories_sizes":[],"default_left":[1,0,1,0,0,0,0,0,0,0,0,0,0,0,0],"id":81,"left_children":[1,3,5,7,9,11,13,-1,-1,-1,-1,-1,-1,-1,-1],"loss_changes":[4.6591797E11,1.3779547E11,9.879473E10,2.5064112E10,5.533021E10,2.376178E10,2.9021438E10,0E0,0E0,0E0,0E0,0E0,0E0,0E0,0E0],"parents":[2147483647,0,0,1,1,2,2,3,3,4,4,5,5,6,6],"right_children":[2,4,6,8,10,12,14,-1,-1,-1,-1,-1,-1,-1,-1],"split_conditions":[3.2594E4,2.8925E4,3.793E4,2.3558E4,7E0,3.2225E4,4.3836E4,9.7999695E1,1.17568474E2,1.21580414E2,1.4399106E2,1.4223817E2,1.6056973E2,1.7640112E2,2.0481247E2],"split_indices":[1,2,2,2,3,2,1,0,0,0,0,0,0,0,0],"split_type":[0,0,0,0,0,0,0,0,0,0,0,0,0,0,0],"sum_hessian":[1.45351E5,9.0878E4,5.4473E4,3.4702E4,5.6176E4,3.5798E4,1.8675E4,8.819E3,2.5883E4,1.5128E4,4.1048E4,9.856E3,2.5942E4,1.3728E4,4.947E3],"tree_param":{"num_deleted":"0","num_feature":"9","num_nodes":"15","size_leaf_vector":"1"}},{"base_weights":[1.4071985E4,1.2936461E4,1.684907E4,1.1361936E4,1.3924012E4,1.6242369E4,1.9667438E4,1.00646736E2,1.2024178E2,1.2220233E2,1.4411273E2,1.5914111E2,1.9426315E2,2.018048E2,1.6230675E2],"categories":[],"categories_nodes":[],"categories_segments":[],"categories_sizes":[],"default_left":[1,0,0,0,0,1,0,0,0,0,0,0,0,0,0],"id":82,"left_children":[1,3,5,7,9,11,13,-1,-1,-1,-1,-1,-1,-1,-1],"loss_changes":[4.5814173E11,1.6026645E11,7.180544E10,3.4047787E10,5.245816E10,3.5973497E10,1.2837978E10,0E0,0E0,0E0,0E0,0E0,0E0,0E0,0E0],"parents":[2147483647,0,0,1,1,2,2,3,3,4,4,5,5,6,6],"right_children":[2,4,6,8,10,12,14,-1,-1,-1,-1,-1,-1,-1,-1],"split_conditions":[3.4485E4,2.8978E4,4.3846E4,2.4923E4,7E0,4.3901E4,2.34E2,1.00646736E2,1.2024178E2,1.2220233E2,1.4411273E2,1.5914111E2,1.9426315E2,2.018048E2,1.6230675E2],"split_indices":[0,1,0,2,3,2,8,0,0,0,0,0,0,0,0],"split_type":[0,0,0,0,0,0,0,0,0,0,0,0,0,0,0],"sum_hessian":[1.45351E5,1.03171E5,4.218E4,3.9772E4,6.3399E4,3.4714E4,7.466E3,1.3447E4,2.6325E4,1.4105E4,4.9294E4,3.1475E4,3.239E3,6.492E3,9.74E2],"tree_param":{"num_deleted":"0","num_feature":"9","num_nodes":"15","size_leaf_vector":"1"}},{"base_weights":[1.3931273E4,1.187078E4,1.5434975E4,1.0350994E4,1.2563934E4,1.4626724E4,1.7838162E4,9.496786E1,1.1025737E2,1.17463394E2,1.323908E2,1.2315566E2,1.5123134E2,1.7095605E2,2.0006833E2],"categories":[],"categories_nodes":[],"categories_segments":[],"categories_sizes":[],"default_left":[0,0,1,1,0,0,1,0,0,0,0,0,0,0,0],"id":83,"left_children":[1,3,5,7,9,11,13,-1,-1,-1,-1,-1,-1,-1,-1],"loss_changes":[4.5017045E11,6.4473793E10,1.6294871E11,1.0970202E10,2.3090692E10,7.1960625E10,3.3705951E10,0E0,0E0,0E0,0E0,0E0,0E0,0E0,0E0],"parents":[2147483647,0,0,1,1,2,2,3,3,4,4,5,5,6,6],"right_children":[2,4,6,8,10,12,14,-1,-1,-1,-1,-1,-1,-1,-1],"split_conditions":[3.0812E4,2.5264E4,3.7858E4,2.3235E4,2.9328E4,8E0,4.3561E4,9.496786E1,1.1025737E2,1.17463394E2,1.323908E2,1.2315566E2,1.5123134E2,1.7095605E2,2.0006833E2],"split_indices":[0,0,1,1,2,3,2,0,0,0,0,0,0,0,0],"split_type":[0,0,0,0,0,0,0,0,0,0,0,0,0,0,0],"sum_hessian":[1.45351E5,6.1326E4,8.4025E4,1.9214E4,4.2112E4,6.2883E4,2.1142E4,8.486E3,1.0728E4,1.9055E4,2.3057E4,1.1123E4,5.176E4,1.5756E4,5.386E3],"tree_param":{"num_deleted":"0","num_feature":"9","num_nodes":"15","size_leaf_vector":"1"}},{"base_weights":[1.3791969E4,1.2548156E4,1.6239915E4,1.130796E4,1.3752234E4,1.5538139E4,1.8664191E4,1.0002382E2,1.19172646E2,1.1978503E2,1.4210365E2,1.4739478E2,1.6544191E2,1.6326323E2,1.932016E2],"categories":[],"categories_nodes":[],"categories_segments":[],"categories_sizes":[],"default_left":[1,0,0,0,0,0,0,0,0,0,0,0,0,0,0],"id":84,"left_children":[1,3,5,7,9,11,13,-1,-1,-1,-1,-1,-1,-1,-1],"loss_changes":[4.4236066E11,1.437755E11,